{"layers":[{"out_depth":1,"out_sx":24,"out_sy":24,"layer_type":"input"},{"sx":5,"sy":5,"stride":1,"in_depth":1,"out_depth":8,"out_sx":24,"out_sy":24,"layer_type":"conv","l1_decay_mul":0,"l2_decay_mul":1,"pad":2,"filters":[{"sx":5,"sy":5,"depth":1,"w":{"0":0.09651099866242516,"1":0.22782015406234804,"2":0.4177395333429037,"3":-0.47752831342442903,"4":0.174721310627585,"5":0.3563116189905126,"6":0.48040101835550086,"7":0.12311042682902534,"8":-0.10482929649416732,"9":-0.37679025313195313,"10":0.06303825794564176,"11":0.5087514802305971,"12":-0.10043976973406454,"13":-0.22708448958931443,"14":-0.09732882130797571,"15":0.008702575268043206,"16":0.23697209564582156,"17":-0.08500441953601132,"18":0.24025744257804704,"19":-0.3432159990995368,"20":-0.23689194428428414,"21":0.1589775644207521,"22":0.14109831291438943,"23":-0.07124811246737339,"24":-0.19004907291669634}},{"sx":5,"sy":5,"depth":1,"w":{"0":0.42580268344393907,"1":0.1956265660783995,"2":0.08974514296334488,"3":-0.06885704059138978,"4":-0.35220515219710846,"5":0.270523830474702,"6":0.27287443646874443,"7":-0.21082706965576156,"8":-0.21998046129741633,"9":-0.5435509941757676,"10":0.35562515605739703,"11":0.4846378429305775,"12":-0.22315486402768567,"13":-0.3333189172842386,"14":-0.32325603354692056,"15":-0.07143730641639541,"16":-0.09126694992383974,"17":-0.4343427023722282,"18":-0.1440084638050635,"19":-0.6267659533823953,"20":0.2812994923222748,"21":-0.24782165652003801,"22":-0.36892708836307286,"23":-0.2982439488705297,"24":-0.15942997806999099}},{"sx":5,"sy":5,"depth":1,"w":{"0":-0.05954411446229283,"1":0.37648965005225665,"2":0.27932555575107043,"3":0.1674954477647661,"4":0.379795762518143,"5":-0.3768571337526599,"6":0.03239614237333127,"7":0.3422863832478851,"8":0.4778654988354411,"9":0.39282263537256346,"10":-0.32255107660138416,"11":-0.7149485290604163,"12":0.12931255194090066,"13":0.4419631549288796,"14":0.38582271679613633,"15":-0.45769637338159147,"16":-0.3098790532352612,"17":-0.21922288337417045,"18":0.25371048734378876,"19":-0.08423114724343535,"20":-0.18267326985528345,"21":-0.3057500376403017,"22":0.25650535564900395,"23":0.11993913544259023,"24":-0.0527077797878134}},{"sx":5,"sy":5,"depth":1,"w":{"0":-0.4697521193116989,"1":-0.49524254322286726,"2":0.013112104302459243,"3":0.159620000713808,"4":0.3053760682778761,"5":-0.46921665082310837,"6":0.056600636171072256,"7":0.2431596178435078,"8":0.4386886082820665,"9":0.2893858091667673,"10":-0.21890187542749334,"11":0.2137031007270337,"12":0.3423167521907886,"13":0.0614566858633762,"14":-0.22423160303389614,"15":-0.22100909528354784,"16":0.30319332432113755,"17":-0.0998371830101185,"18":-0.14739724568827622,"19":-1.0028514299835933,"20":0.07684455540035837,"21":0.11384943392271045,"22":-0.1570160765937967,"23":-0.5491465391322565,"24":0.20641996236843918}},{"sx":5,"sy":5,"depth":1,"w":{"0":-0.38857024900647824,"1":0.004983354857651073,"2":-0.4233473283550021,"3":0.05643182035112272,"4":-0.09917932175228178,"5":-0.6738419214338603,"6":-0.7147813897272198,"7":-0.2561701510563551,"8":0.5201802246933765,"9":0.16065450200858541,"10":-0.17669839437860463,"11":-0.22202183144053084,"12":0.10295742912400108,"13":0.4809882094385499,"14":0.5042920158065209,"15":0.4079496996196622,"16":-0.03969472161422929,"17":0.15332805819903178,"18":0.10579040521139321,"19":0.005820650045204854,"20":-0.48996695966775855,"21":-0.12253277350756087,"22":-0.26940132680667417,"23":-0.13214573490628614,"24":0.31994318926531135}},{"sx":5,"sy":5,"depth":1,"w":{"0":0.1568077600094066,"1":0.03943042225247547,"2":0.07172946752731722,"3":-0.2761618062823997,"4":-0.20235691456996524,"5":0.7798177710002531,"6":0.00422813443167059,"7":-0.140824801458158,"8":0.011952510773839669,"9":0.19898205083146328,"10":0.16617342479465913,"11":-0.11163981168757862,"12":0.302196210316717,"13":0.37125320425001596,"14":-0.08864185847208593,"15":0.018313685112708023,"16":0.21443740946956033,"17":0.4798920917024768,"18":-0.415399425137221,"19":-0.1976777449716507,"20":0.04516513195546127,"21":-0.12721075943606366,"22":0.003995609430513108,"23":-0.3586587029263779,"24":-0.23231188655105894}},{"sx":5,"sy":5,"depth":1,"w":{"0":-0.37695317428996,"1":-0.4826224273492957,"2":-0.13795453301759336,"3":-0.16800418355264854,"4":-0.44294745997240953,"5":-0.1867454112982557,"6":-0.45171948515494376,"7":-0.3443798910069863,"8":-0.6293369055663692,"9":-0.38036420331883436,"10":0.43180526553105375,"11":-0.3629208509938918,"12":-0.21778516160621703,"13":-0.45289809495746614,"14":0.4125873738433341,"15":0.4535695987551055,"16":0.2540574037001745,"17":-0.1978106873905613,"18":0.014161492771061965,"19":0.18898560969935413,"20":0.3842566443057942,"21":0.2906173476921005,"22":0.8847704723210867,"23":0.4755014614861426,"24":0.39999299289644413}},{"sx":5,"sy":5,"depth":1,"w":{"0":0.5383682520733563,"1":0.675991552174223,"2":0.37690095302007776,"3":0.5574960459746879,"4":0.11113520720597371,"5":0.39054906405353024,"6":-0.02785895035671479,"7":0.135980523163993,"8":0.6817996941102971,"9":-0.07200952218212894,"10":-0.05574365664118453,"11":-0.09203976278113483,"12":-0.06404976236733416,"13":-0.24630053717347872,"14":0.20623921886924299,"15":-0.5928845035183294,"16":-0.3065081413086818,"17":-0.3948364448591797,"18":-0.19522762258333112,"19":-0.11367877012544747,"20":-0.7438602341627802,"21":-0.3698411600681183,"22":-0.3702486525153656,"23":-0.21280943284302262,"24":-0.005124240400008831}}],"biases":{"sx":1,"sy":1,"depth":8,"w":{"0":-0.1350954812241771,"1":0.09132921759665144,"2":-0.07105658885631376,"3":0.045741299575176426,"4":-0.0061290812693281516,"5":-0.10506802704954617,"6":0.20040626870374204,"7":0.07686906006658592}}},{"out_depth":8,"out_sx":24,"out_sy":24,"layer_type":"relu"},{"sx":2,"sy":2,"stride":2,"in_depth":8,"out_depth":8,"out_sx":12,"out_sy":12,"layer_type":"pool","pad":0},{"sx":5,"sy":5,"stride":1,"in_depth":8,"out_depth":16,"out_sx":12,"out_sy":12,"layer_type":"conv","l1_decay_mul":0,"l2_decay_mul":1,"pad":2,"filters":[{"sx":5,"sy":5,"depth":8,"w":{"0":0.019524812766398742,"1":-0.1345439866977344,"2":0.01460010303652038,"3":0.09358589732120577,"4":-0.26689566279681837,"5":0.014237412388172012,"6":0.07893439050772756,"7":-0.3478570109658435,"8":-0.09507070792957432,"9":-0.06280291286527755,"10":-0.2712200130149955,"11":0.21622368845526363,"12":-0.08650089355437025,"13":-0.024726597485761743,"14":0.28528209922954584,"15":-0.1970021132995948,"16":-0.09103353846222258,"17":0.003533415149465716,"18":0.1296962877490208,"19":0.042347062693748265,"20":0.2051392956571835,"21":-0.1077214625484051,"22":-0.007573669733691042,"23":-0.41370959387074624,"24":-0.0408321770052087,"25":-0.12536253278089088,"26":0.0888657789088582,"27":0.34025104215506824,"28":0.08229957175537256,"29":0.10706176232875092,"30":-0.23821688998699073,"31":0.02271699853913208,"32":0.1326171948105907,"33":0.13654433273879502,"34":-0.003220567096759909,"35":-0.004281100240168874,"36":-0.17610008305962005,"37":0.06393766102092827,"38":-0.05064034476658353,"39":0.14153740122440625,"40":0.17986416620148946,"41":-0.04097075633530476,"42":-0.2525433006939477,"43":-0.14100487085424862,"44":-0.051904888877578347,"45":0.18956930445231046,"46":0.09733047757891578,"47":-0.022839876633341714,"48":0.0897708213784762,"49":0.0641288567659096,"50":0.027593654269021883,"51":-0.08856207963558017,"52":0.0012831747731498096,"53":0.14059187602581044,"54":0.19836387158221822,"55":0.036127208030888015,"56":-0.03072396759987964,"57":0.23284910927626312,"58":0.05172133929152834,"59":-0.07553384568579452,"60":0.3551432936715269,"61":0.14231574498054234,"62":0.05758966101798841,"63":-0.010560642940400966,"64":0.18045237886068308,"65":0.1006735191400109,"66":-0.28298652867136675,"67":0.15396158550840264,"68":0.09219142855646753,"69":0.05797015591286939,"70":-0.07408629040981149,"71":0.043240099558239306,"72":-0.057505998291575995,"73":0.06897123567430698,"74":-0.04638204558197182,"75":0.020817640186713324,"76":-0.12605914375841995,"77":-0.009290681250561882,"78":-0.12300567918818803,"79":-0.0760308490906571,"80":0.041683016058174094,"81":0.07181026163774518,"82":-0.0083675071225705,"83":-0.31587381213217486,"84":-0.26803532532083957,"85":0.12711267351149724,"86":-0.11916060110742539,"87":0.24321536792599308,"88":-0.05422242060541674,"89":0.11871284358651248,"90":0.09611605318826137,"91":-0.1587354257742833,"92":-0.05048395315747347,"93":0.059440828893898734,"94":-0.12627966124695472,"95":0.3121556865668069,"96":-0.03562913183562924,"97":0.07885867184172765,"98":0.10069812598670855,"99":-0.009292393298872334,"100":0.11431767309748403,"101":0.10266211848729227,"102":-0.16147290435272935,"103":0.3871976562319239,"104":0.12184687459991653,"105":0.10137105983055099,"106":-0.10035534221428376,"107":0.07087610950064838,"108":-0.16099406561249002,"109":0.09145989025479043,"110":-0.24158186730121745,"111":0.18552424175662635,"112":-0.11608021628938335,"113":0.03358690163249817,"114":-0.17500226938459773,"115":-0.02546012476244699,"116":-0.13861537037469537,"117":-0.03309610989072763,"118":-0.2972105631516371,"119":0.07295394094993478,"120":-0.23054266195088288,"121":-0.09224152649010325,"122":-0.2387486919604527,"123":-0.23054080402852983,"124":-0.16870887547821165,"125":0.03931100933350147,"126":0.07568457435631659,"127":-0.027133335431834032,"128":-0.2370058181536078,"129":-0.18677866360992654,"130":-0.010956641148115946,"131":-0.06681428011910223,"132":-0.12816368150391455,"133":-0.35186930820374857,"134":0.047177530492841194,"135":-0.0634748479518211,"136":-0.11127309765950535,"137":0.03636937913972344,"138":-0.11247943667542112,"139":0.009552275910183488,"140":-0.3098640581110992,"141":-0.22719990334682194,"142":0.09139590820844343,"143":0.046234969520651245,"144":-0.20749353313517677,"145":-0.13036882781058923,"146":-0.284536503846087,"147":-0.0851563871224297,"148":-0.2596234397476176,"149":-0.2411639905038137,"150":0.050877543104605634,"151":-0.004430086475663584,"152":-0.28137802292027075,"153":0.06038547545410564,"154":-0.16736125348192143,"155":-0.012142664127638685,"156":-0.17780899685503349,"157":-0.2596071059456274,"158":-0.13695007462122052,"159":-0.1499613737961496,"160":-0.09194379284031039,"161":-0.09867177313274036,"162":0.11106297090593101,"163":-0.2148920244599346,"164":0.05359567934879579,"165":-0.08647790380815794,"166":0.0732671507552388,"167":-0.1808473648656658,"168":-0.061818854362566816,"169":-0.04669276165673633,"170":-0.09642043148455627,"171":-0.026416784731391627,"172":0.005935348078548464,"173":-0.029432220438545445,"174":0.00534534049785759,"175":-0.12231881022619633,"176":-0.26367802681379854,"177":-0.1611989227040673,"178":-0.18657645253528043,"179":-0.09249859803824853,"180":-0.2169813474553198,"181":-0.2230616352254447,"182":0.11255502911488705,"183":-0.2387911041066616,"184":-0.3555861966285582,"185":-0.18261649150633907,"186":-0.1494079496221899,"187":-0.17591367122435095,"188":-0.11822314459925887,"189":-0.2705588878062514,"190":0.12692883939076913,"191":-0.11455102855566265,"192":-0.24224829200633669,"193":-0.030422651603915822,"194":-0.10977627896374934,"195":-0.08739042778479969,"196":-0.12151137300606708,"197":-0.160425909037623,"198":0.09536823115155933,"199":-0.13405898395863053}},{"sx":5,"sy":5,"depth":8,"w":{"0":-0.2556302553047562,"1":-0.021339147091661254,"2":-0.14080139430533545,"3":-0.10279286747545109,"4":-0.07111198897597801,"5":-0.17458082979730602,"6":-0.07058152963155011,"7":0.06628585389466704,"8":-0.057044898407809484,"9":-0.06980135697140777,"10":0.23490129814922805,"11":-0.18979113835390496,"12":0.16204901574442795,"13":-0.11095344489356311,"14":-0.21581050200475668,"15":0.016563332184775806,"16":-0.04717096596811262,"17":0.009740558841468148,"18":0.0028377531958785765,"19":0.1536825086624411,"20":-0.10425868522270253,"21":-0.08638958563544333,"22":-0.16543860878927638,"23":-0.08139168169656473,"24":-0.0006843233606725358,"25":0.2676282831729204,"26":-0.2736933077166054,"27":-0.10958932408348648,"28":-0.18164465169930383,"29":-0.04348436282383787,"30":0.07667703131076947,"31":-0.09590250489276891,"32":-0.23752050688379778,"33":-0.011094934127961968,"34":0.021603859928753733,"35":-0.2142003062601978,"36":0.1838957835086433,"37":-0.254635122152355,"38":-0.0487144010507411,"39":-0.03045352050889156,"40":-0.1946179761721276,"41":-0.011646963907427027,"42":0.0147093315237319,"43":-0.11386996710210794,"44":0.025596987114606763,"45":-0.16831767844740192,"46":-0.07359873925542612,"47":-0.005185651662376516,"48":-0.07747099910243224,"49":-0.045746548394349024,"50":0.11080333820135041,"51":0.04623570688494619,"52":0.20028042830749665,"53":-0.11112431475840882,"54":0.037269416495853414,"55":0.03315846142178341,"56":0.014673915273001718,"57":0.2458147522867228,"58":0.010254540769090464,"59":0.19900922853968314,"60":0.005273178822247859,"61":0.1412630157959371,"62":-0.08263393007248841,"63":-0.07336015025558246,"64":0.0695289677988213,"65":0.32964753386229845,"66":-0.2788280975191452,"67":-0.026912420018172054,"68":0.04410655477204849,"69":0.027951806430232366,"70":-0.14821470988706004,"71":-0.07651431148413006,"72":-0.3261590600784329,"73":-0.057983218579665416,"74":0.11566801333970148,"75":-0.20920921575973533,"76":0.12021715875513658,"77":-0.1733828057884489,"78":-0.11104715296891979,"79":-0.19874562042281618,"80":-0.2593870813836,"81":-0.1054217564774594,"82":0.18184914595926174,"83":0.005331292585579436,"84":0.10345490980563861,"85":-0.1823524598158494,"86":-0.18883339244781472,"87":-0.10135441800402845,"88":-0.08957424700359422,"89":0.03662695210035016,"90":0.10561627131477093,"91":0.24303790404568973,"92":0.2236823273148843,"93":-0.05084434258661924,"94":-0.07616118325915466,"95":-0.06068787474226929,"96":0.23874143353722677,"97":0.2642768919316319,"98":0.02121112568119495,"99":0.04162948616856815,"100":0.23019556649423548,"101":0.08948828506502733,"102":-0.2955613227434714,"103":-0.12100365406707074,"104":0.24154305566271728,"105":0.38567024892927043,"106":-0.270659068361457,"107":-0.08195498072732975,"108":-0.1697203607015198,"109":0.14216720056022136,"110":0.011588199289652615,"111":0.11888019752396295,"112":-0.2160023540942105,"113":-0.1275368894853057,"114":0.07561903783735567,"115":-0.2748379259883322,"116":0.055739239187994734,"117":-0.2857295172323073,"118":-0.0770015411575515,"119":-0.2875486137148296,"120":-0.01896064536054031,"121":0.07861731787379682,"122":-0.04699724319946569,"123":0.21512872260432758,"124":0.10296510730477722,"125":-0.027890173041613182,"126":-0.09835779831048574,"127":-0.08917809767045978,"128":0.03714682461445218,"129":0.08349452106586432,"130":0.09912068463696397,"131":0.26078233882372703,"132":0.22809743618772682,"133":0.034688899793071416,"134":-0.02310534492237166,"135":-0.02157987697956362,"136":0.08430246381683158,"137":0.19918163722174825,"138":-0.08403148773565258,"139":0.0006192985038395631,"140":-0.07014360278995478,"141":0.16220603301915837,"142":-0.08823683753053072,"143":0.09903267271172723,"144":0.12409878029049928,"145":0.2771791669649076,"146":-0.16046815484873236,"147":-0.2592144220371876,"148":-0.09262805828172412,"149":-0.0886347244020715,"150":0.07823619952383945,"151":-0.12895559600289186,"152":-0.16094261064188067,"153":-0.1464091921136383,"154":0.13238749662318475,"155":0.030157722661875688,"156":0.16896315458052652,"157":-0.060770457342749176,"158":-0.042470877308884276,"159":-0.26264627820488423,"160":-0.06475243298219016,"161":0.04623255030123197,"162":-0.050470974423044414,"163":0.22989805987950696,"164":-0.11544847918946047,"165":-0.14060809101908797,"166":0.15345726454517214,"167":-0.3007505339051062,"168":-0.09769304316916444,"169":0.14949630147622792,"170":-0.04849189788951918,"171":0.07184848502063111,"172":0.013429991761938829,"173":-0.06002064630903803,"174":0.08505125125137719,"175":-0.14767671309959976,"176":-0.09923372562232995,"177":0.02380293414514941,"178":-0.2588291635797687,"179":-0.12712963370931718,"180":0.05323717839000306,"181":-0.20168872245494182,"182":0.04081660833177023,"183":-0.07039478152686673,"184":-0.156799896060542,"185":-0.054395231627212305,"186":0.11755065182463383,"187":-0.25074529167393267,"188":-0.08181070989385479,"189":-0.18367861316263773,"190":0.18268159813245252,"191":-0.22903286670295672,"192":-0.019428393737062823,"193":-0.05438077016187821,"194":0.031017094911348055,"195":0.08990122434019229,"196":0.23082583377420407,"197":0.019743144684339978,"198":0.06071688986344414,"199":-0.10741482487558657}},{"sx":5,"sy":5,"depth":8,"w":{"0":0.15515763982893335,"1":0.18260359613956073,"2":0.0679959376810486,"3":0.2109865709805165,"4":0.17114903050254315,"5":0.19393483315156035,"6":-0.08242789151638336,"7":0.12898549725209105,"8":0.22608388156943046,"9":0.16085441940068831,"10":0.0836611092060768,"11":-0.005188993485764367,"12":-0.09239902763844593,"13":0.19975333847548674,"14":-0.15402848099782587,"15":0.33269749228536644,"16":0.06239170088362406,"17":0.12466121448838316,"18":0.012687295240438878,"19":0.09977308961664415,"20":0.024943008734886144,"21":0.07828232375828141,"22":-0.07756896152282038,"23":0.06629310318959224,"24":0.06315961484426078,"25":0.0045677899684338635,"26":0.011164756667130894,"27":0.046374414642593856,"28":-0.13444347704071133,"29":0.057322190380609234,"30":-0.19342460763259484,"31":0.01739441262762944,"32":0.06728441938970678,"33":-0.13778491812045465,"34":0.1016680175135246,"35":-0.11240622873416689,"36":0.016556860071013157,"37":0.09803594603897134,"38":-0.07706445552597473,"39":-0.06947368399477903,"40":0.09410752580511918,"41":0.20197299263740062,"42":-0.13868524937169105,"43":0.0013395114165569498,"44":0.05154802263889414,"45":-0.00013569929404333761,"46":-0.10451227173265128,"47":0.1243975095422689,"48":-0.10214157085106566,"49":0.08533507048917938,"50":0.06705175118612648,"51":-0.013135050647927379,"52":-0.08610315011139638,"53":-0.05692979913037244,"54":-0.12175701253744509,"55":0.0735759190748102,"56":-0.03352515259626129,"57":-0.01625333540974679,"58":0.08783887345270004,"59":-0.04999588089367808,"60":0.0388190902541627,"61":-0.07389904393276384,"62":-0.23940779207017665,"63":-0.05720442044958655,"64":0.04106677217425754,"65":0.012281051733757688,"66":-0.03418500920950712,"67":-0.040243139684338645,"68":0.006184997896612206,"69":0.037755857857974445,"70":0.03056807448545874,"71":-0.03239569442872784,"72":-0.17553528157172132,"73":-0.04060758786563859,"74":0.08773519041139244,"75":0.07664234978490032,"76":0.18992909439642447,"77":-0.126962243542517,"78":0.13982030472026533,"79":-0.044947837716783026,"80":-0.08593781093057958,"81":0.1357560171382303,"82":-0.15706368780147562,"83":-0.04621580458134088,"84":-0.03328050292388621,"85":-0.20511233192970577,"86":-0.10181923959184276,"87":-0.02874358026910856,"88":-0.14980218166032178,"89":-0.0835220439729858,"90":-0.09992383627859591,"91":-0.18417813480478912,"92":-0.10792613160649563,"93":-0.3228046841969172,"94":-0.10745518247912324,"95":-0.1731724418260858,"96":-0.1372669040887464,"97":-0.16477763096070513,"98":-0.29177624505302097,"99":-0.21672475781242262,"100":-0.16374170660511442,"101":-0.12096647052613758,"102":-0.2631249385929441,"103":-0.17584443140688383,"104":-0.03927616807223644,"105":-0.04359177204073664,"106":0.0321820469105712,"107":-0.07927880999626241,"108":-0.09637388426599827,"109":-0.13230787898100416,"110":-0.16386494825994852,"111":-0.2768864694612852,"112":-0.04971099033878238,"113":-0.12150728714589991,"114":0.18690305253178163,"115":0.008567279470458874,"116":0.1887919061819162,"117":-0.1081959592815253,"118":-0.10800878433899845,"119":0.04174966040792673,"120":-0.18221274097736023,"121":-0.1382362757890263,"122":-0.010077706984683077,"123":0.027710790211765535,"124":-0.022487640643346365,"125":-0.2606450065771252,"126":0.1354456512407892,"127":-0.12041549252194346,"128":-0.007145904488890339,"129":-0.17719994289812424,"130":-0.1620325184726643,"131":-0.06517525511843547,"132":-0.08402026994327548,"133":-0.09816577550126228,"134":0.03743768571428848,"135":-0.10812900067378987,"136":-0.10241567800896587,"137":-0.021806845257639585,"138":-0.24218446919617226,"139":-0.06299684091189495,"140":-0.16618093149722124,"141":-0.1496308154574672,"142":-0.13933811082732625,"143":-0.05152965512209209,"144":-0.2417146240083627,"145":-0.17120953245380036,"146":0.11274180866064834,"147":-0.04756697085412006,"148":0.05060983385175941,"149":-0.24724679809585048,"150":-0.11120981601970238,"151":-0.008889217528339127,"152":0.02057124597873377,"153":-0.12916283908574702,"154":0.2223683184573284,"155":0.0672466270334615,"156":-0.013319032232936125,"157":-0.06234141810578128,"158":-0.010674150783408711,"159":0.038027827201353614,"160":0.028492336545571866,"161":-0.3199054334005326,"162":0.19077096856230602,"163":-0.12742819681488812,"164":-0.06241089205449361,"165":0.1130826014473562,"166":0.33278456862083716,"167":0.016108272635050214,"168":-0.024190982148654484,"169":0.011138659618847531,"170":0.05250314266998037,"171":-0.07681611528575133,"172":-0.1547078280799476,"173":-0.09554955741050165,"174":0.18837298309490688,"175":-0.28857972466759063,"176":-0.1256442700828825,"177":-0.18882819673129236,"178":0.0926382974579665,"179":-0.06674877794580455,"180":-0.14407403635173324,"181":-0.18897327625996538,"182":0.09141239656072626,"183":-0.3619763599276682,"184":-0.13007054640032573,"185":-0.16811052048012579,"186":-0.05565335989739197,"187":-0.06650399588900313,"188":-0.20926567500577173,"189":-0.23161890368443228,"190":0.15030730884107457,"191":-0.1507624845737133,"192":-0.032672806952973824,"193":-0.20739738260116974,"194":-0.3501457070379731,"195":-0.12722652866797549,"196":-0.07214321950411044,"197":-0.07790361871382605,"198":0.1807704214917927,"199":-0.3139931944889539}},{"sx":5,"sy":5,"depth":8,"w":{"0":0.07152235740883257,"1":-0.11552288131261168,"2":0.07860399006927117,"3":-0.0009081671055996532,"4":-0.026712845237307884,"5":-0.09797247632423149,"6":0.03906566373067364,"7":0.18450966358100193,"8":-0.08896081026687977,"9":0.19084800457077644,"10":0.11759959429513667,"11":0.1749581059028261,"12":-0.06428197062332441,"13":-0.01337005797664766,"14":-0.23892974196164238,"15":0.15704548820030798,"16":-0.06186734316154102,"17":0.25861650759292854,"18":0.22298840444960738,"19":0.15114820572575668,"20":0.05190388033688978,"21":0.10123835761653974,"22":-0.06533036726419927,"23":0.20466881557378214,"24":-0.009625071608387051,"25":-0.016677173571182723,"26":0.1383641514722699,"27":0.18485534547851598,"28":0.06662967296924634,"29":0.08490831211351049,"30":0.11441131126597254,"31":0.11012463762089224,"32":0.09908019316124674,"33":0.16777048927327862,"34":0.02593476999240904,"35":0.029220338801818936,"36":-0.02779063239905104,"37":0.013610888151183439,"38":-0.05158625988307862,"39":0.045459696744377366,"40":-0.09520677372976342,"41":-0.13732569645732448,"42":-0.18669784044046714,"43":0.11481108433404727,"44":-0.11996137145894775,"45":-0.07058983926508229,"46":0.2482187893871414,"47":-0.12496942394906956,"48":-0.047318862488142856,"49":-0.1720410772812015,"50":-0.13086380835900735,"51":0.19449104822078045,"52":-0.16430805097497214,"53":-0.23680052003805924,"54":0.13388962487869835,"55":0.09181844354016602,"56":-0.07699760161812917,"57":-0.08673276190417191,"58":0.0015186970131451964,"59":0.05586063622630748,"60":-0.12051500995935134,"61":-0.28896687632640833,"62":-0.13907835482600256,"63":0.12298473913853165,"64":0.05993486498591242,"65":-0.06503798159633864,"66":-0.02226431166010465,"67":0.1032903763959443,"68":-0.23953387598175213,"69":-0.036580663426949066,"70":-0.20071708784076886,"71":0.27971161060257305,"72":-0.06453079734201106,"73":-0.10871959204269109,"74":-0.022497778838694617,"75":-0.18778631882307098,"76":-0.1511739080527789,"77":0.028547512789074518,"78":-0.2261521631818038,"79":0.056463938601645815,"80":0.03523225449486157,"81":-0.23924003968854105,"82":-0.27628074254952917,"83":-0.22362892603432108,"84":0.1804166722623563,"85":0.05319636199498801,"86":0.25138301603996205,"87":0.1089971451487328,"88":0.04953803086615109,"89":-0.24123581938362718,"90":-0.16863091993483206,"91":-0.023699577527304547,"92":-0.030488754019438662,"93":-0.054647262819502745,"94":0.17552024754530718,"95":-0.12490774985461844,"96":-0.1363413589546107,"97":-0.23688682459788668,"98":-0.49078801086601487,"99":-0.12411310226968975,"100":-0.37321742686572495,"101":-0.13757775431464953,"102":0.30511236733630054,"103":-0.19223727441353755,"104":-0.3225580924952243,"105":-0.22170679997251766,"106":-0.14586855821548697,"107":-0.14607175425632982,"108":-0.15845762269642058,"109":-0.3314495638527366,"110":0.13101255104466675,"111":-0.17890702039489506,"112":-0.2749124508582738,"113":-0.12375217644835493,"114":-0.0757383984810421,"115":-0.22410968314107782,"116":-0.08946467557207796,"117":-0.35090603156531025,"118":-0.056014935012867535,"119":-0.2152886254181235,"120":0.12575086355954962,"121":0.015126616697823426,"122":0.10129776040543226,"123":0.2994520427940144,"124":0.1621799518817529,"125":0.06939180929173668,"126":-0.13713529344006098,"127":0.24659412040459147,"128":0.09484373250538969,"129":-0.12714745296097046,"130":0.2768232362671088,"131":-0.0013772025853569262,"132":0.2250180348332141,"133":0.012543680123884564,"134":-0.09153659542241542,"135":0.15704147885941314,"136":0.09985483311523692,"137":-0.19459376996860298,"138":-0.011936953199290527,"139":-0.22806895364387544,"140":0.01799370408457477,"141":-0.003236253890333234,"142":0.11505145956719791,"143":-0.20345495457832855,"144":0.04682653855070559,"145":-0.08818355470134051,"146":-0.13387386037711643,"147":-0.21764856454107898,"148":-0.02222515363153266,"149":-0.07549526234773071,"150":0.384040750382008,"151":-0.18708390423645851,"152":-0.14427678195705246,"153":-0.0879699257479353,"154":-0.03341926294394885,"155":0.09053646456005791,"156":-0.02538479460178817,"157":-0.06272247823104468,"158":0.06832273801751801,"159":-0.09943519003320617,"160":0.02846775914984175,"161":0.021212270035496503,"162":-0.06135112304211416,"163":0.14112931066021095,"164":0.00644479652518764,"165":-0.05913301239482778,"166":-0.04860487744377066,"167":-0.09585845022202048,"168":-0.1400052741411557,"169":-0.22984206641361904,"170":0.23500901196265922,"171":-0.0593190288077304,"172":0.21876909946691978,"173":-0.14441206260387063,"174":-0.09168514279959758,"175":-0.0033731230027113208,"176":0.03910459839038747,"177":-0.10503057787513195,"178":0.29338838103775106,"179":0.015919127992662464,"180":0.17744300315982625,"181":0.06635383112448316,"182":-0.2863145974620225,"183":-0.19347099274194676,"184":0.019060696659249095,"185":0.02605076654210655,"186":-0.0787760207245926,"187":-0.26680764335718715,"188":-0.18500794096541884,"189":0.14243425339236443,"190":0.19956962613302687,"191":-0.12852381411952432,"192":-0.1520576450711744,"193":-0.05237880353080026,"194":-0.11358589660368851,"195":-0.12129608185766455,"196":-0.02563325238614363,"197":-0.035257627775515166,"198":0.04017084725684529,"199":-0.13776350331785356}},{"sx":5,"sy":5,"depth":8,"w":{"0":0.15813710066663922,"1":0.03552475198899944,"2":-0.11636469340942392,"3":-0.09339245942117855,"4":-0.09886701364808784,"5":-0.05338409299046812,"6":0.03812686165679839,"7":0.010174748473118394,"8":-0.24744042642457473,"9":0.06201209599140445,"10":-0.2525144811198624,"11":0.1014529476588321,"12":0.0717245052483695,"13":-0.068879618321865,"14":0.060610954209874904,"15":0.006073447768832179,"16":-0.31658472500060303,"17":0.03564484365234567,"18":-0.3857920932160361,"19":0.0328012959485517,"20":0.2829728305646937,"21":-0.04373316677882479,"22":0.13569511613246588,"23":-0.11485425137461348,"24":-0.24699742713368297,"25":0.09769907430709927,"26":-0.25919439390269183,"27":-0.08092636987524005,"28":-0.01987251345012424,"29":-0.14598186736867955,"30":0.19921264431886831,"31":-0.08704396561951745,"32":-0.30536612356693116,"33":-0.003239867035560006,"34":-0.2547132502668108,"35":-0.12014419811234527,"36":0.10652568881136645,"37":-0.07507093626618665,"38":0.13356374939778415,"39":-0.09404746052735233,"40":-0.06795968432708137,"41":0.15067078484380597,"42":-0.045895547813674525,"43":-0.02440766260789077,"44":0.04961478150409203,"45":0.0545211334846178,"46":-0.22300212393608895,"47":0.07754987894588605,"48":0.0018898249558384882,"49":0.025848803505967147,"50":0.03597762573600053,"51":-0.040656917685980225,"52":0.02221431876150444,"53":-0.11935454741688,"54":-0.07063443840411404,"55":-0.11291718474128894,"56":-0.05143594855122057,"57":0.10406864865241934,"58":0.07563025202844806,"59":0.07967881518547969,"60":0.2103800803891219,"61":-0.046321634234928806,"62":0.09034106419420566,"63":-0.13593057554964955,"64":-0.106816206384076,"65":0.04814822710110163,"66":-0.02655858061480448,"67":0.013323889074602038,"68":0.20854402341044534,"69":-0.01116074721464549,"70":0.18103153297876728,"71":-0.05552373896009306,"72":-0.07791854304723599,"73":0.06048951119687619,"74":0.05544600892251115,"75":0.21536596265841998,"76":0.08112148452184373,"77":0.04553496427392609,"78":-0.052385253305837355,"79":0.13946706369435286,"80":-0.0729059414386706,"81":0.06176230264751966,"82":-0.06020726373529806,"83":-0.17064858450452852,"84":-0.33438916707723726,"85":-0.036703910667306286,"86":-0.024301126798807606,"87":0.07758149315745654,"88":-0.10603886452390712,"89":0.05309312700088925,"90":-0.152124878275076,"91":-0.029156892215295556,"92":-0.1154756071959066,"93":-0.20206205632705498,"94":-0.010931532016373879,"95":-0.1140610975727702,"96":-0.2524228320534374,"97":-0.1489251617484988,"98":-0.05019261137944342,"99":0.1427846959583323,"100":0.08254179300021573,"101":-0.10471617660565885,"102":-0.2756951702288532,"103":0.14018919996170642,"104":-0.029852200029722286,"105":-0.1176387023996124,"106":0.20138537558870934,"107":0.23556094711112865,"108":-0.034923099470454425,"109":-0.0152316121941215,"110":-0.14120306270627814,"111":0.1075332503081432,"112":0.13072840969891988,"113":0.025881406584024144,"114":0.008980153889684594,"115":0.21460081821051424,"116":-0.14881921365473166,"117":-0.07991414730275657,"118":-0.22823994798683075,"119":0.22687776496057327,"120":-0.10485355067219038,"121":-0.05924737810672822,"122":-0.3315071775230715,"123":-0.10048553121635033,"124":-0.11653390904980197,"125":-0.011839904556817077,"126":0.09508092398404679,"127":-0.1829050043704801,"128":-0.13452390724126015,"129":-0.11725264998022898,"130":-0.23386465515395488,"131":-0.06060174865466929,"132":-0.20644057705415503,"133":-0.00935669572293741,"134":0.15318938205656482,"135":-0.005244979720586055,"136":-0.317168675146672,"137":-0.18373018426740695,"138":-0.003668032626489892,"139":-0.018306602225664517,"140":-0.1883561592961862,"141":-0.25461876776815795,"142":-0.03229838185863808,"143":0.033164015763232406,"144":-0.20548378021907335,"145":-0.19405287146331487,"146":-0.04636816144443465,"147":0.02004766461921816,"148":-0.15447846107397728,"149":-0.3027301993727489,"150":0.09447744595947045,"151":0.06650950233712304,"152":-0.1881693565483194,"153":0.10323252962477308,"154":-0.2539747305289133,"155":-0.31004314665977545,"156":-0.16809067171475073,"157":-0.19973327364059593,"158":-0.05550976306907487,"159":0.09960347803150643,"160":-0.10033234696116852,"161":0.03389782392619233,"162":-0.09381194054056434,"163":0.01191695189164798,"164":0.05927663511440419,"165":0.059755242460375106,"166":-0.033708524282630596,"167":0.021698624519310476,"168":-0.09258250708658963,"169":0.12106882957259203,"170":-0.12406354804912173,"171":-0.13460305431042,"172":0.02270113264875419,"173":0.04812072012808093,"174":0.13280755122394308,"175":-0.2206100129866924,"176":-0.2353317998797181,"177":0.060130516986655204,"178":-0.10173400372070109,"179":-0.16100007458796198,"180":-0.18245858314143187,"181":0.002621131442666639,"182":0.27743466632428504,"183":-0.1448469130996954,"184":-0.3398329104175341,"185":-0.10983210414200308,"186":-0.22367669007169447,"187":-0.06934172050531259,"188":0.10279454476832278,"189":-0.24633673194232383,"190":0.34297120522954694,"191":-0.23658931040142378,"192":-0.20475057017975287,"193":-0.05088323585211565,"194":-0.08909370962161085,"195":-0.11041554776722567,"196":0.08258754887398466,"197":-0.09410541643566427,"198":0.16985979257149414,"199":0.06572611094353627}},{"sx":5,"sy":5,"depth":8,"w":{"0":0.03671039275475743,"1":0.06722091958977722,"2":0.06245334525616331,"3":-0.00852776945588384,"4":-0.07263101757674398,"5":-0.02453763057799454,"6":-0.13866360683120987,"7":0.16898427873351962,"8":0.034749248135331166,"9":-0.022951898089787467,"10":0.1094827389124226,"11":-0.004360166677536035,"12":-0.01707018765733987,"13":0.09875630128070732,"14":-0.019348239444983987,"15":0.05772787011105339,"16":-0.02038199019053415,"17":0.1377736628786837,"18":0.09770331487041851,"19":-0.04009079700431387,"20":0.007129411287001888,"21":0.09283577078715424,"22":-0.06355048276223865,"23":0.02481718981747343,"24":0.025177975779233835,"25":-0.07286050943962871,"26":-0.042164753660960064,"27":0.1408996937284951,"28":-0.015331094136867875,"29":-0.03323539181212595,"30":0.00020335329677617295,"31":0.0045468490382633685,"32":-0.1032008528227928,"33":-0.2786575996825425,"34":0.027035269676313138,"35":0.058439363974396155,"36":0.19376682218615232,"37":0.03803529989757187,"38":0.021263504481792074,"39":0.13247927849292904,"40":-0.06877192451320574,"41":-0.0142416247938668,"42":-0.012082784322932801,"43":-0.0026596857041654124,"44":-0.05460879659863948,"45":-0.0699282096117821,"46":-0.07593462518385748,"47":0.04571688716765544,"48":-0.09280408212419512,"49":0.06222799668708162,"50":0.09928565524148412,"51":-0.0067732016111021085,"52":0.0810182505926494,"53":-0.1288638521796555,"54":-0.021588038930192774,"55":-0.019532138241604474,"56":0.13794640987186252,"57":0.14730392714478427,"58":0.06313051892395412,"59":0.052252642209306734,"60":0.15654802209128957,"61":-0.05500323785835338,"62":-0.28234305045052127,"63":-0.10113956989689483,"64":0.1565845267169811,"65":-0.06876234839387656,"66":0.006695502564535569,"67":0.2215319462001317,"68":-0.14987109325353784,"69":0.03850654103724319,"70":0.057143720456980594,"71":-0.08041865473344494,"72":0.016995850839912535,"73":-0.1754412696930468,"74":0.03298687783779092,"75":0.20082389833793637,"76":-0.1566674511982704,"77":0.05747066401892757,"78":0.04086737687051165,"79":0.14772479734989646,"80":-0.2231019636397105,"81":-0.10963068446447788,"82":-0.10490561271471951,"83":-0.10364812855475701,"84":-0.298290008660659,"85":-0.10529536324105668,"86":0.19289225469353763,"87":-0.10378509889260258,"88":0.048415755534913715,"89":-0.1271767086654557,"90":0.10733265202750118,"91":0.09562698272363107,"92":0.034948477220482325,"93":-0.2476380017093214,"94":-0.20573820493618594,"95":0.15286029275665178,"96":-0.15468558039618355,"97":-0.12480234739139924,"98":0.2759494089533024,"99":-0.10120818748095577,"100":0.12828185088167793,"101":-0.32831022775019464,"102":-0.6082312185759022,"103":0.044799141355401834,"104":0.07012814578434923,"105":-0.3224563530093604,"106":-0.046393551912758534,"107":-0.04417713849724845,"108":-0.1391092238430217,"109":-0.01838524026887626,"110":-0.07010281336752586,"111":0.03281323911754536,"112":-0.1132330814708839,"113":-0.08114989424375536,"114":-0.26571986715488455,"115":-0.04898848818282554,"116":-0.1401236778650496,"117":-0.049002575090958886,"118":0.18258791588324888,"119":-0.2262896584577164,"120":0.198909544885394,"121":0.04394868158271877,"122":-0.2647559686445513,"123":0.011021461340791721,"124":-0.21424708395771438,"125":0.12665123500043246,"126":0.26094141176906593,"127":-0.17048084928684037,"128":-0.07607037208799637,"129":-0.003988440410180416,"130":-0.024444150373191066,"131":0.08795717877366736,"132":-0.21043837803307994,"133":-0.10998822052594479,"134":0.003146943879118862,"135":-0.1621983195975251,"136":-0.04362473310718649,"137":-0.22351441296220087,"138":0.15768686341588972,"139":-0.060265395174473484,"140":0.1709640497188876,"141":-0.2596989029267917,"142":-0.19352277094458953,"143":0.039351350047069134,"144":0.10830518228959758,"145":0.07046923954949084,"146":0.17994241801174682,"147":-0.033174612268239506,"148":0.07930569823699227,"149":0.1176550596237225,"150":-0.4814032533581975,"151":-0.09606000598101032,"152":0.03864915156905303,"153":0.01705274238846457,"154":-0.09436116719306424,"155":-0.17103244934730114,"156":0.022897366260158758,"157":0.07828409928999189,"158":0.07981520620509043,"159":-0.016662581339971828,"160":0.35108133267879793,"161":-0.030072393441947776,"162":0.019147601120450268,"163":-0.22900474708432783,"164":-0.0913886863466102,"165":0.26752601766155615,"166":0.16364706171657223,"167":-0.1576594133599395,"168":0.07125305801869417,"169":0.0019583766107111288,"170":-0.25239375165611017,"171":0.15839808790818363,"172":-0.35065558786047335,"173":0.03361639998457323,"174":0.3189445974740975,"175":-0.30636912578118924,"176":-0.2288874070759931,"177":0.012408513586543862,"178":-0.23212091899126652,"179":0.19738130936698375,"180":-0.08962486507272581,"181":-0.20155438355346225,"182":-0.026582131785463207,"183":-0.2742215217891071,"184":-0.03230033715489975,"185":0.1105050919250324,"186":0.09426696412425382,"187":0.08399311001167035,"188":0.011609959112492232,"189":-0.050083213490521784,"190":-0.2812285813885097,"191":-0.10614009905538355,"192":0.012026859652735394,"193":-0.046018643548716535,"194":0.02668225692867769,"195":0.004090376883708499,"196":-0.10778299715541284,"197":0.060490327161609556,"198":-0.2085122599436497,"199":0.1749780057643323}},{"sx":5,"sy":5,"depth":8,"w":{"0":0.01517678692483199,"1":-0.043182078783944707,"2":-0.07406508043487788,"3":0.09798161629907566,"4":-0.10595479418073869,"5":-0.003465843676252539,"6":-0.19759724612006796,"7":0.0057212645396223965,"8":-0.02656720990050831,"9":0.04909420296846775,"10":-0.02220943753852337,"11":0.03943340045253124,"12":-0.031692610594921206,"13":-0.06632351602484624,"14":-0.02725442745967811,"15":0.14017587356533773,"16":-0.06051230557693927,"17":-0.1464741282912457,"18":0.05672547203566341,"19":-0.1541629298409525,"20":-0.1876038871512393,"21":-0.10256848999988655,"22":0.08746744884983738,"23":-0.07874168696419713,"24":-0.08493396934288822,"25":-0.1539178641379773,"26":0.15927336608577677,"27":-0.02202017718931,"28":-0.14162613552220332,"29":-0.016239170051421906,"30":-0.1249613000485418,"31":-0.13358140675654537,"32":-0.0839189638508639,"33":0.20501154952333916,"34":-0.19338483504739348,"35":-0.06416072012600144,"36":-0.2478463191843585,"37":-0.022616808375980145,"38":-0.13194437938953527,"39":0.010801765679190185,"40":0.07934284758619098,"41":-0.11635327597824692,"42":0.08053987624175088,"43":0.092658360042483,"44":0.0013541526954716195,"45":0.10962691925470135,"46":-0.1363633787372328,"47":0.27197514107146153,"48":-0.06820872763677614,"49":-0.20385460175417763,"50":0.22756554659340747,"51":-0.017556223764041975,"52":-0.06909795025609046,"53":0.017170539171434924,"54":0.03589193143294165,"55":0.01636312262441669,"56":-0.21855696494092314,"57":-0.13147502305298409,"58":0.10853542425195503,"59":-0.022704592624415577,"60":0.09247872528911501,"61":0.003326935761624852,"62":0.032461162920436826,"63":-0.020415828449298814,"64":0.05008887037253863,"65":0.161800620450083,"66":-0.011641290046020162,"67":0.03790700112974196,"68":-0.005772009732987737,"69":-0.06364614242819512,"70":-0.041231992073564726,"71":-0.12515191031887893,"72":0.052448496368605296,"73":0.42165266872383705,"74":-0.32835470660679134,"75":-0.07237631841213124,"76":-0.1402739069524985,"77":-0.033859030310723306,"78":-0.16118618277001484,"79":0.01215127287097894,"80":-0.2875048286055982,"81":-0.38874426267671897,"82":0.12452250621233031,"83":-0.05218989236955569,"84":0.00439386726139993,"85":-0.03962783294603749,"86":0.21564048881137768,"87":-0.3016235367084428,"88":-0.03842964818999107,"89":0.025354269250146444,"90":0.10800598865984033,"91":0.3040934378551485,"92":0.1897158219588784,"93":0.05867306974829451,"94":-0.0611377705592065,"95":-0.3205885619105581,"96":-0.03423678536954879,"97":0.1928251378443228,"98":-0.055080174991579516,"99":0.23025497704146905,"100":0.18673507650907128,"101":0.03796641426057736,"102":-0.17589925575785026,"103":-0.06864459899873873,"104":-0.0515636813826519,"105":0.11846661222265564,"106":-0.2650710045370932,"107":0.14895766178158473,"108":-0.0803437001661933,"109":0.01928366484348767,"110":-0.19843379105129189,"111":0.1083542210712581,"112":0.11762490444232465,"113":0.2449939535031981,"114":-0.3970221355170264,"115":-0.1395738765265829,"116":-0.15395751778020128,"117":0.08919674776610019,"118":-0.2614219501932929,"119":0.16459768624205995,"120":-0.08509602787348047,"121":0.08559062935030201,"122":0.034596513740297666,"123":0.32169487640352973,"124":0.2781895171422616,"125":0.028563831877701146,"126":0.06746260256715311,"127":-0.2007955808703658,"128":0.3238974877449859,"129":0.2342169247010898,"130":-0.10112844771332728,"131":0.29311030537102506,"132":0.20307726254732872,"133":0.03407554024369989,"134":-0.4052324365676964,"135":0.11234712185803147,"136":0.12584383603227411,"137":0.04516571793120136,"138":-0.20595302063310936,"139":-0.004354467821634884,"140":-0.1493152319692973,"141":0.1363380651845861,"142":-0.3203771136938383,"143":0.16480134127960794,"144":-0.11178837833094454,"145":0.014701738139158984,"146":-0.24538884334109182,"147":-0.24104154460802316,"148":-0.14187779102002063,"149":0.059233903036522206,"150":-0.004350464262809476,"151":0.17495335696647482,"152":-0.15432107315499272,"153":-0.22284751452480714,"154":-0.17699663903367455,"155":-0.1932939939269644,"156":-0.06820290715102183,"157":-0.19834459697209555,"158":0.0692496441779382,"159":-0.20492762335942763,"160":-0.05002910511501195,"161":0.0611229186078525,"162":-0.06684439468730306,"163":0.3089820798551882,"164":0.004678629136400855,"165":0.08892351297851281,"166":-0.13293411286308157,"167":0.06558575992063666,"168":0.022991804302820232,"169":0.2572226178804679,"170":-0.05183567162188609,"171":0.07843901426576139,"172":-0.0013518697133388926,"173":0.013655277814217182,"174":-0.08803916379863193,"175":0.08708152000350478,"176":-0.028034498678611297,"177":0.06874522321159489,"178":-0.048448747010299845,"179":-0.20040969660581975,"180":-0.14833384949822215,"181":-0.09591601971716494,"182":0.1333115849703888,"183":0.06766936028929876,"184":-0.23168801563862276,"185":-0.13714519731323968,"186":0.0017438181172493294,"187":-0.1435015467145301,"188":-0.20606536943523468,"189":0.08879951663042424,"190":0.20365466986160083,"191":0.060564502578362024,"192":-0.04067476850610242,"193":-0.22546151761603564,"194":-0.02198740037567057,"195":-0.04746000910948141,"196":0.011042804637481673,"197":0.05520472364703043,"198":0.00353185092122951,"199":-0.027153683147141967}},{"sx":5,"sy":5,"depth":8,"w":{"0":-0.04469674434815338,"1":0.018794112888927444,"2":0.030000862031026296,"3":-0.0031194448410002814,"4":0.05616927709769583,"5":0.06562317934829788,"6":-0.08329592162751134,"7":0.02582715380439305,"8":0.12359192441357754,"9":-0.14361543503021132,"10":0.1425966874717854,"11":0.1273895455151196,"12":0.2304663263282404,"13":-0.009902365249880389,"14":-0.06364803712404127,"15":-0.003984941318716964,"16":0.051085899797412744,"17":-0.13610769514412568,"18":-0.14561429212129784,"19":-0.011946090249683225,"20":0.013278901929959184,"21":-0.10152875071579182,"22":-0.02566011101677893,"23":-0.050989088224972605,"24":-0.009399897409630698,"25":-0.18020515960316852,"26":-0.2338255559222144,"27":0.030407503422034177,"28":-0.04179973325045434,"29":-0.0016049571302553661,"30":-0.007262369996323472,"31":-0.26578095921782696,"32":0.07975839682437554,"33":-0.12727674479411466,"34":-0.14673420785620456,"35":-0.0073157146623735615,"36":0.10834404040833603,"37":0.12518416570662155,"38":-0.04730294795848672,"39":-0.22310645774319615,"40":-0.04217135386531731,"41":-0.2164146865722517,"42":0.24818084437615973,"43":-0.020626368269011947,"44":-0.026867135319807302,"45":0.06357457733388647,"46":-0.16489148990763006,"47":0.04899572096931746,"48":0.07956409157269527,"49":-0.005486522196638205,"50":0.14851048685717827,"51":-0.03536216762627021,"52":0.054104483295300695,"53":0.14918587922260826,"54":-0.08655039257446576,"55":0.012012760544908307,"56":0.1092845817700753,"57":-0.14796389084885028,"58":-0.08187498923163397,"59":-0.04192407328896558,"60":-0.06747937901393065,"61":0.037037806909457516,"62":0.09799951127568549,"63":0.05460159881540796,"64":0.08679159807864237,"65":-0.3974697938426704,"66":-0.06484371768049915,"67":-0.023107180525832972,"68":-0.058513415029317374,"69":0.15520112330671657,"70":0.021867171284182436,"71":0.12552971447440578,"72":0.07715438106124675,"73":0.05582201697253355,"74":-0.13086903313708573,"75":-0.1277990873380497,"76":0.00350424323452904,"77":-0.05397534285715238,"78":-0.08768949086184373,"79":-0.009006708545229239,"80":-0.06214783979574827,"81":-0.09604506751608628,"82":0.13274946490767178,"83":-0.13692297688179186,"84":-0.24409235885378497,"85":-0.1538077335110361,"86":-0.09228409941200806,"87":-0.020651506055803293,"88":-0.06053150183500344,"89":-0.12211726140635727,"90":0.3005609010316632,"91":0.06985782407102853,"92":0.11426957750609651,"93":-0.0725056370654313,"94":-0.15106682177928646,"95":0.23714335040146967,"96":-0.022573453064773718,"97":-0.1090916820949609,"98":0.16974495074348647,"99":0.0469323449315353,"100":0.0020111796555279003,"101":0.18872192101960436,"102":-0.19679383182125126,"103":0.24060985599668383,"104":0.013183404537659225,"105":-0.0787433063940733,"106":0.16866508663105423,"107":-0.04211395619821854,"108":-0.103522772215965,"109":0.06780664659439517,"110":-0.2815360253897988,"111":-0.006810949824198898,"112":0.1041139308222962,"113":0.07443531660352182,"114":0.0014590531549107386,"115":-0.0952126283074175,"116":0.16903581746017324,"117":0.06675914013711044,"118":-0.31215415618777037,"119":0.05948480834746571,"120":-0.08304157633689828,"121":-0.11178552141830743,"122":-0.30407674608637636,"123":0.02378368215537305,"124":-0.16090125505211803,"125":-0.09607876290492323,"126":-0.004463183159191896,"127":-0.1572996912287815,"128":-0.32614248052545525,"129":-0.05519008130267131,"130":-0.11988633823085562,"131":0.07784911831491292,"132":-0.13225434381489598,"133":-0.21725736867362522,"134":0.09115516720953297,"135":-0.06103933192102147,"136":-0.23095102370563653,"137":-0.1573938192969125,"138":-0.007833939994843192,"139":-0.053479422939924214,"140":0.016130796166733578,"141":-0.23931318380670139,"142":0.18034552008253046,"143":-0.11509470213935753,"144":-0.10528530408135035,"145":-0.0045294908157677855,"146":0.017415186216321113,"147":0.018260712999909952,"148":-0.1289059789721298,"149":-0.13659285013602798,"150":0.02936091428181024,"151":-0.08257352882354366,"152":-0.08251653190734015,"153":0.0657387140355454,"154":-0.28172009607753606,"155":-0.01767192857862014,"156":-0.11499783976080215,"157":-0.11975944295366205,"158":-0.09090726384727231,"159":-0.13828701059386125,"160":-0.04759491677229218,"161":0.12019861187946239,"162":0.07775421935003679,"163":-0.011742885082326923,"164":-0.042270824641513306,"165":-0.034855954792849704,"166":-0.01163862586108496,"167":-0.10939983937064485,"168":-0.10011345233953307,"169":0.15933874893923972,"170":-0.060813955829671924,"171":0.07864695702735407,"172":0.09918854276122603,"173":-0.048685919211893414,"174":0.061658600404428394,"175":-0.08654255552226336,"176":0.03441473388077722,"177":0.04423244216122838,"178":-0.07352584700436939,"179":0.09149100491855519,"180":-0.04219925259670659,"181":0.24763667743528658,"182":0.03233590910014471,"183":0.011168104449049202,"184":-0.014137007759078361,"185":0.12491990505704195,"186":-0.1895180084554423,"187":0.016894912973668047,"188":0.04651511118953783,"189":0.07260542156151795,"190":-0.11342555798680656,"191":-0.18468584394161158,"192":0.02181266041130133,"193":-0.017477492593042113,"194":-0.12790411473323493,"195":-0.03483821568377485,"196":0.0369036818079493,"197":-0.05210847138241241,"198":-0.12991595298751257,"199":0.010393763430699766}},{"sx":5,"sy":5,"depth":8,"w":{"0":-0.03104458893135655,"1":0.0570829141819073,"2":-0.1037534645878913,"3":-0.2452083925194157,"4":-0.23628817863221163,"5":-0.11241419334821708,"6":-0.24166552010195294,"7":-0.024769014891719406,"8":-0.05490431709964222,"9":-0.026942649739582845,"10":0.034010073401841416,"11":-0.09182766070854793,"12":0.11680726713374577,"13":-0.2965024725450598,"14":-0.03078496965031097,"15":-0.049039686597258214,"16":-0.14932191391688532,"17":-0.2723710020594787,"18":0.07354923471312293,"19":0.1234828777731295,"20":0.23258774778725283,"21":-0.020261882349582563,"22":0.09362963207842026,"23":-0.1461831587773291,"24":0.03476035493352744,"25":-0.09266096770912076,"26":0.05458017960015597,"27":0.07834293954394302,"28":0.19876682571066415,"29":0.1697853218005232,"30":0.22952109171202542,"31":0.11886833701115034,"32":-0.04571197252719456,"33":-0.011210316613172384,"34":0.08367883192111424,"35":-0.0365131671858841,"36":0.06252103177612718,"37":0.06570546322728314,"38":0.03546706456643344,"39":0.2831187792844975,"40":-0.051501065636760344,"41":-0.13060366137598528,"42":-0.15466023275483226,"43":-0.10812483767915147,"44":-0.26434671137675697,"45":-0.1918164477000282,"46":-0.197343917702897,"47":-0.11212615786718458,"48":-0.22698919952319926,"49":-0.24242633940211525,"50":0.11597730722528186,"51":0.18869780974956257,"52":0.09593833385358383,"53":-0.2704109326571711,"54":-0.15277206196689241,"55":-0.07655010145127453,"56":-0.03115926901506022,"57":-0.35609710958647933,"58":0.11449466226238761,"59":0.23446418450295783,"60":0.009734655241881142,"61":-0.08957286120418276,"62":-0.09066555985075439,"63":0.022809822191974295,"64":0.13511312999158126,"65":0.015949735018567612,"66":0.18130354134857762,"67":0.13887168175879366,"68":-0.07502323884050817,"69":0.05375616773466007,"70":-0.18107169628421313,"71":0.19656482932638195,"72":0.08229466131402807,"73":0.1652618595667392,"74":0.04881414747012344,"75":-0.21576789792945647,"76":-0.19667254228634057,"77":0.05450590483337655,"78":-0.37223784576403085,"79":0.1379354007480668,"80":-0.35869447912366065,"81":-0.34394464901588856,"82":-0.21610212234333842,"83":-0.03409097439776222,"84":-0.16736092251828166,"85":-0.22065865801759976,"86":-0.1580412744032674,"87":-0.1796442439212879,"88":-0.23030122074339235,"89":-0.27165670484398263,"90":-0.2392370368948043,"91":-0.046028287401931545,"92":-0.15151737528141,"93":-0.20112314456738606,"94":-0.0005651470285784481,"95":-0.0963499315207999,"96":-0.2507632054466949,"97":-0.1891851271725173,"98":-0.045294789677262366,"99":0.12793773901393451,"100":-0.22210261802565157,"101":-0.12421920719506743,"102":0.21348590725625896,"103":0.25765140448243956,"104":-0.24094383343972484,"105":0.1023486780527874,"106":-0.12103433992469749,"107":-0.13974102857261853,"108":-0.060002176552263545,"109":-0.10548008345135179,"110":0.14697307698397846,"111":0.10561149347967248,"112":-0.25028277140073213,"113":0.05550955444262512,"114":-0.08572860068272815,"115":-0.21881740387135343,"116":-0.006214578695391983,"117":-0.26174928941651276,"118":0.13557687227290405,"119":-0.04453207444994295,"120":-0.12494735874483795,"121":-0.2654946492643782,"122":-0.2789317531022763,"123":-0.2148121035853401,"124":0.04244658975952233,"125":-0.059394119703628095,"126":0.1680529558547281,"127":-0.18606552784438277,"128":-0.17383934231101097,"129":-0.12652771095147358,"130":-0.25547264902338124,"131":-0.08290908877990567,"132":-0.15038332816613317,"133":0.01672960684652281,"134":0.37500934571522704,"135":-0.2685284518929562,"136":-0.2681996995216703,"137":-0.11573280293507465,"138":-0.14181846320716834,"139":-0.09327459302501993,"140":-0.04056709112389815,"141":0.08199683765371457,"142":0.2813336842010987,"143":-0.2864378077970343,"144":-0.3568202914420362,"145":-0.2532011765877522,"146":0.015575743857028135,"147":-0.09830825054928287,"148":0.17792459592613816,"149":-0.05356512405792708,"150":0.23665659540823356,"151":-0.143436043822898,"152":-0.12853623102982145,"153":0.010211607956378781,"154":-0.01335212500512696,"155":-0.029390170530734207,"156":0.09902805923431368,"157":0.043076149823182766,"158":-0.0295215900205529,"159":-0.10067084614562141,"160":-0.07357151906805051,"161":-0.21831455056189383,"162":0.006361019526472124,"163":0.3118232429009713,"164":0.1203958337841997,"165":0.05055902442163729,"166":0.2079423462179714,"167":-0.2430192517642138,"168":0.022038454552306547,"169":-0.16377665014771997,"170":-0.1576214735219325,"171":0.21415609596281607,"172":0.13693733000881164,"173":0.13376714100760434,"174":-0.14724984896916526,"175":-0.0975956906255877,"176":0.009025164227410568,"177":-0.1795537337132359,"178":0.04705793355546432,"179":0.009668558528122052,"180":0.13483870649837956,"181":0.08419825390274568,"182":0.02584854543103803,"183":0.07635045166340677,"184":0.13236063979063878,"185":-0.15041156413039233,"186":0.04051571154618866,"187":0.09690518398428176,"188":-0.06872115705490331,"189":-0.03287539797210457,"190":0.05224203512583538,"191":0.1665674684298388,"192":-0.055288655924127864,"193":-0.159121961300887,"194":-0.019899466090225963,"195":-0.027202701710608013,"196":-0.07100146526207711,"197":-0.14802354159274114,"198":-0.0965109499374885,"199":0.03952709658210636}},{"sx":5,"sy":5,"depth":8,"w":{"0":-0.06654014728375797,"1":-0.16658525336377228,"2":0.07062341568795831,"3":-0.08417361813509551,"4":-0.0501908726697129,"5":0.12075869625881701,"6":0.06732502269644021,"7":0.04516630192602213,"8":-0.03154208212801582,"9":-0.23340833876130004,"10":0.02104137779394101,"11":-0.019508935709330353,"12":-0.028840189529747172,"13":0.04795291198236396,"14":-0.08032838522321761,"15":0.09090045538953276,"16":0.004972418133313783,"17":-0.17663153228682174,"18":0.2293736960743597,"19":-0.14616947255869175,"20":-0.002819834933152741,"21":0.05557197081774002,"22":-0.19413137006887876,"23":0.12005663292431294,"24":0.007802639381899934,"25":-0.157725749305576,"26":0.07098263473854313,"27":-0.22586225485875314,"28":0.09786854633944193,"29":-0.05631389216449845,"30":-0.20164741811917872,"31":0.07947007445172856,"32":0.11168172387042419,"33":-0.30875917497983374,"34":-0.06097028986877317,"35":-0.23473985958701019,"36":-0.043845316751637116,"37":0.14003261318448793,"38":0.24892626442399987,"39":-0.15772688444915187,"40":-0.09333351317746805,"41":-0.019189602177184663,"42":-0.105215176873683,"43":0.08241159509967806,"44":0.01581469055592332,"45":0.06075052497720421,"46":-0.0561503455747788,"47":-0.05479767268057557,"48":0.021148256944749644,"49":-0.11874397407390824,"50":-0.09973617408043388,"51":0.05044644960090953,"52":-0.13846285983938314,"53":0.081866580816887,"54":-0.3133777424529435,"55":-0.07051352254623872,"56":-0.08667708792951793,"57":-0.1074083977282806,"58":0.03632285908544593,"59":-0.07220692288331847,"60":-0.1616136117999208,"61":0.060218261124760454,"62":-0.18286024790456984,"63":0.09910880872793264,"64":0.04556346952612293,"65":-0.042187768693943875,"66":0.325027197543425,"67":-0.1204794943196524,"68":0.02622737672435992,"69":-0.06654235445466396,"70":-0.24848757936320634,"71":0.24358433656317205,"72":0.13083530573116708,"73":0.034891390372722285,"74":0.11869338961069936,"75":-0.23101093984311216,"76":-0.016753631969385414,"77":0.13011895460846118,"78":-0.23388177173999866,"79":0.03974094128490473,"80":-0.049848817232242416,"81":-0.008620664441218536,"82":-0.09760638925654076,"83":0.10293936344862002,"84":-0.24732563577621341,"85":0.1331372996061431,"86":-0.17164206969779994,"87":0.14733694180242207,"88":-0.05746715358195828,"89":0.10688273886035406,"90":-0.11557465621485564,"91":-0.17471732100276047,"92":-0.12133285519734471,"93":0.13983572695054797,"94":-0.11505619399036873,"95":0.09862085046861059,"96":-0.2016167318679554,"97":0.13933795411896818,"98":-0.1207349166157468,"99":-0.07895711891344588,"100":-0.06925544130894466,"101":0.01663294258408711,"102":0.03859418701410466,"103":-0.0006024711810641427,"104":-0.06224507161631375,"105":-0.1476959998919766,"106":0.0046525272780040105,"107":0.20342356111017088,"108":-0.04478426511799396,"109":0.012621752424392613,"110":-0.15283875423346838,"111":-0.2607955041359291,"112":-0.09714204148720498,"113":-0.06622759546026875,"114":0.09348102877790399,"115":0.010798202024879645,"116":-0.037827371540522785,"117":-0.0350485427820121,"118":-0.13176685132398916,"119":0.07839232506207294,"120":0.06707332248397646,"121":0.15111808641059074,"122":-0.2714593975983156,"123":-0.052717914925807394,"124":-0.14889057038915748,"125":-0.09647431335832454,"126":-0.06876329879880956,"127":0.001975122321699192,"128":-0.13645269959178316,"129":0.03643770953602926,"130":0.08616730656341438,"131":-0.1175035693798471,"132":0.08634488015259899,"133":-0.2563549310584779,"134":-0.06576666717342601,"135":-0.04148619689633861,"136":-0.17916211278718602,"137":-0.16394836406635974,"138":0.007843205097982144,"139":0.3053428093641736,"140":0.021841598812282856,"141":-0.14489943536230787,"142":0.003992569048074723,"143":-0.2300930811726934,"144":0.058086519628214935,"145":-0.011260296973949497,"146":-0.17231225270516873,"147":0.05637636063817567,"148":-0.05199584969860375,"149":-0.07212229094714413,"150":0.0019270486090655538,"151":-0.08977373745433953,"152":-0.04071635070391226,"153":0.04048959235815322,"154":-0.03567066868618827,"155":-0.06290720660547926,"156":0.03718394738871192,"157":0.01206714164010051,"158":-0.028461919709981066,"159":0.06432879834458555,"160":-0.07967637000537181,"161":0.1714053974543402,"162":-0.09931209986982653,"163":-0.22817118599678735,"164":0.039028859442663655,"165":-0.12237463630218116,"166":0.06712157133584307,"167":-0.09135782943837728,"168":-0.174448112212541,"169":-0.022296898705284274,"170":-0.0002578032496443846,"171":0.06719119664238726,"172":0.03351755694372787,"173":-0.10783324793553763,"174":0.06576412071162571,"175":-0.11550777216308983,"176":-0.009233461246259015,"177":-0.014658513814867423,"178":-0.05425168445897815,"179":0.11538290005622752,"180":0.18359515459323775,"181":-0.12609120753295602,"182":0.04798993021358259,"183":-0.02486418120669031,"184":0.10648406917898068,"185":-0.00010456486993754314,"186":0.008117338812938569,"187":0.06467205686110805,"188":0.003444040409803838,"189":-0.045139852083964246,"190":-0.040308884416825605,"191":-0.1530282899959308,"192":-0.06333667987576488,"193":0.06279663506198155,"194":0.06430785152626572,"195":0.17008136995407333,"196":-0.060267527381302644,"197":-0.15522266832484885,"198":-0.02354284270919376,"199":-0.03398693088250564}},{"sx":5,"sy":5,"depth":8,"w":{"0":-0.22582620858292596,"1":0.03082238924280481,"2":0.12750907015332663,"3":-0.21848891490539848,"4":-0.06377034161706353,"5":-0.16044632253725288,"6":-0.008522695415279497,"7":-0.2636185924906619,"8":-0.02091158315001591,"9":0.12067828854976795,"10":0.00849059357296562,"11":0.08064997523365768,"12":0.07255412398852332,"13":-0.07873732494591001,"14":0.06348255862538069,"15":-0.2788654793765626,"16":0.19683460308371376,"17":-0.058914970279849134,"18":0.0403175886515538,"19":0.21769168777754977,"20":0.000276362817898574,"21":0.05146304129929852,"22":-0.19610052374818165,"23":-0.0056869243937814696,"24":0.24545605779745927,"25":0.1455336037767421,"26":-0.13454993962888773,"27":-0.08813552486669876,"28":0.050232724612909244,"29":0.0441057613265538,"30":-0.21311728859971657,"31":0.02270868432015744,"32":-0.030872661144706083,"33":0.018896166384757343,"34":0.09203443125477408,"35":0.14767708660634918,"36":0.08373056993389952,"37":-0.030164884118488913,"38":-0.1661695492470831,"39":-0.1471146958311524,"40":-0.018921946309463786,"41":0.011105125841035887,"42":0.04793223105307262,"43":-0.10349434127160277,"44":-0.0851256326088515,"45":-0.1757085712467695,"46":-0.06040141498586118,"47":-0.1872288682812652,"48":0.05912584041201086,"49":-0.014596922164346188,"50":0.1642450072841103,"51":-0.030886782995648746,"52":0.05137412806759042,"53":-0.06332823850472613,"54":-0.15957052661272234,"55":-0.20560419534032986,"56":-0.020777136088413653,"57":0.1969211541594384,"58":-0.02100467610135432,"59":-0.20808439161632253,"60":0.0216591505509828,"61":0.1457120541397588,"62":-0.20998363277257803,"63":0.09711732199625141,"64":0.025716083760625834,"65":0.13195008557689084,"66":-0.10944471675865869,"67":-0.09695809139912422,"68":0.002709698188906922,"69":0.1423256134321151,"70":-0.08574040104713547,"71":-0.031425717959110214,"72":-0.07260569265860867,"73":-0.05901554929162817,"74":-0.03897147753370659,"75":-0.01637501635466977,"76":0.24510304715799586,"77":0.00862612582289392,"78":0.14729926851704522,"79":-0.0666371380692483,"80":-0.1481019431334377,"81":-0.006874349415400744,"82":-0.01589396025772386,"83":0.049994966458389134,"84":0.0776414428526857,"85":-0.27816175709884255,"86":-0.07787902535184194,"87":-0.350032246889888,"88":0.0774764205825124,"89":0.10767660643648967,"90":-0.15935301751681163,"91":0.08424706668772736,"92":-0.10534988432406454,"93":0.025391686534555827,"94":-0.45982744907910017,"95":-0.0805015628508145,"96":0.00047169307683816997,"97":0.18256367746817168,"98":-0.022023673893137013,"99":0.005874190299713765,"100":0.20363929185802435,"101":0.028877511834088494,"102":-0.3195322725370242,"103":0.027948400390846773,"104":0.038293092533112444,"105":0.21584819886521095,"106":-0.042626183511869,"107":-0.09705179135827698,"108":-0.027883807931588067,"109":0.19191884681036225,"110":-0.20880622211222213,"111":0.03752778613806854,"112":-0.04321182772389569,"113":-0.03444771425394862,"114":0.25807002691297065,"115":-0.032051679238144615,"116":0.20976418988857648,"117":0.035463792706772905,"118":-0.1204390753682245,"119":0.001205459301088235,"120":0.07391268487416636,"121":-0.10698118349767521,"122":-0.02192585658295897,"123":0.07151800957556266,"124":-0.11149037715716432,"125":0.022936494888182363,"126":-0.15399312986694816,"127":-0.06272339864675158,"128":0.11341427590934071,"129":0.048976253548575745,"130":-0.2326898858040592,"131":-0.1471111237443145,"132":-0.31022872928717315,"133":0.14410691769923464,"134":-0.06455249710247973,"135":-0.11982962042246567,"136":-0.003494473710934398,"137":0.053278716970010256,"138":-0.050049740152163145,"139":0.09193710388437001,"140":-0.12107653056112898,"141":0.02905306994030062,"142":-0.1451769581705069,"143":0.09078801843710348,"144":-0.04023499748226473,"145":-0.0029435399486073804,"146":0.041787605828111786,"147":0.11608282769622476,"148":-0.08797058257935478,"149":-0.010464110393090566,"150":-0.06141163473325584,"151":0.10341887095146086,"152":-0.16940692084121295,"153":-0.1327435392208919,"154":0.18770500161015338,"155":0.19504951039142782,"156":-0.13346499891779265,"157":-0.056290107523718824,"158":-0.09710244334119515,"159":0.22904525667041858,"160":0.14153303068043183,"161":-0.08221663303870941,"162":-0.03444546077554929,"163":-0.0953712253392164,"164":0.08374846544169941,"165":0.0752628422655367,"166":-0.11010011772846454,"167":-0.016854576261740313,"168":0.2328070138337145,"169":-0.18971685102864025,"170":-0.1467389564339501,"171":-0.07566688841504711,"172":-0.13839843086721834,"173":0.13810569590831098,"174":0.048671761336321936,"175":-0.1821148995950558,"176":-0.0969794182444651,"177":-0.017153906776670846,"178":-0.13545657538767403,"179":0.027206439090622227,"180":-0.006781977522597684,"181":0.005505858949458935,"182":0.17408969306738978,"183":-0.09581079843840651,"184":-0.037728919276195046,"185":-0.040395965346048036,"186":-0.2526561602450342,"187":0.04521277568982332,"188":-0.04934242150360721,"189":-0.02808861302632573,"190":0.2285832767318479,"191":0.13272727599099915,"192":-0.09369791788832516,"193":-0.011827787271774437,"194":-0.2773559529165701,"195":0.02373476240970347,"196":-0.34695823258069275,"197":-0.24564701829577912,"198":0.29151098562988165,"199":-0.08386880141002132}},{"sx":5,"sy":5,"depth":8,"w":{"0":0.09486905874970782,"1":-0.0464409703474852,"2":0.05036895758124347,"3":0.10937471050071997,"4":-0.012352151105641607,"5":0.10060889837947504,"6":-0.11512473632636422,"7":-0.0900886507333951,"8":0.039551243383878776,"9":-0.037482463670901016,"10":-0.1106818333890009,"11":0.024728019873618258,"12":-0.03446374279722605,"13":-0.044172727391110216,"14":-0.10985325772134961,"15":-0.21737170299501096,"16":0.020155161970131997,"17":-0.2310226801875582,"18":0.06192467127183027,"19":0.02866428293292536,"20":-0.10337996222753097,"21":-0.09345977453917001,"22":-0.10253221344113855,"23":0.031020016375968008,"24":-0.18950246188487418,"25":-0.19127601866508362,"26":-0.03886738011248327,"27":0.1396561250892329,"28":-0.10539226402907673,"29":-0.17494656998389577,"30":-0.18254380254291555,"31":0.09541277867047222,"32":-0.04765806252348743,"33":-0.28350072448163693,"34":-0.11600397956650332,"35":-0.23941852538704037,"36":-0.38216905579821964,"37":-0.2196435944974313,"38":0.11426746473545213,"39":0.0011211161131599921,"40":0.12477161286124452,"41":-0.09988090678589953,"42":0.07142535913220374,"43":-0.00017847582842826402,"44":-0.05621009958129117,"45":-0.07216384494204357,"46":0.04526070884116067,"47":0.2805209895620432,"48":0.12858735870380297,"49":-0.18851909231900674,"50":0.16080994173858607,"51":-0.17988508697277922,"52":-0.17060243752730833,"53":0.03398829705109889,"54":0.04810399322874295,"55":0.13527805425628245,"56":-0.0735608559233737,"57":-0.19874032591907925,"58":-0.12232569795548102,"59":-0.14058728319401576,"60":-0.0896028767867641,"61":-0.04212765115116234,"62":0.28374383943117,"63":-0.17064048830611517,"64":-0.1346269156967962,"65":-0.3601127500821405,"66":-0.1113839310984375,"67":0.04787315848827908,"68":0.0388660329192062,"69":-0.02759581990068503,"70":0.25796979134019715,"71":-0.19049242361644061,"72":-0.13454950667133742,"73":-0.19525728738812204,"74":-0.27003493346593194,"75":-0.11280870324676875,"76":-0.05611817604523475,"77":0.04867113376176305,"78":0.13153519605007027,"79":0.0320426575087369,"80":0.0028702570994500356,"81":-0.17735438576652265,"82":0.1335064538905212,"83":0.1294480546047119,"84":0.0591426169589596,"85":-0.0692285274894897,"86":0.03165187436849983,"87":-0.09633660894555023,"88":-0.1573073355783985,"89":-0.0669351859326883,"90":0.07206311931124663,"91":-0.07307491501167587,"92":0.15157087096067273,"93":0.14464625652394547,"94":0.1483174502047881,"95":-0.029550210247066246,"96":-0.030590471607275592,"97":-0.013891916376051725,"98":-0.0835386316237777,"99":-0.10318031922289175,"100":0.31144637769917105,"101":0.1848250424800601,"102":0.02211755843611525,"103":0.15276543131820391,"104":-0.014306455186623372,"105":0.059189000788921975,"106":-0.08364862262872555,"107":-0.016898033535915607,"108":0.2472003430100505,"109":0.1417587994207635,"110":0.016413751787427527,"111":0.11128166894669803,"112":0.21098039909160027,"113":-0.0748312098512577,"114":0.09530496946412058,"115":-0.06091929068616618,"116":0.2792402359970677,"117":0.11062023797985387,"118":0.025263146818879176,"119":0.2875176430381724,"120":-0.035294279290809916,"121":-0.017953334125139633,"122":-0.08523785029544381,"123":0.12161141486428743,"124":0.1775577102976423,"125":0.02472356398701517,"126":-0.0885203275362631,"127":0.1470428797231582,"128":0.11600233518452947,"129":-0.05377027170497488,"130":0.05716293898276744,"131":0.14608545703451964,"132":-0.041835109835602284,"133":0.10367297265060459,"134":-0.1966086368066328,"135":0.10660769913022695,"136":-0.03027060026688636,"137":-0.043807223945044334,"138":-0.02347073264701481,"139":0.08587661309278491,"140":-0.15421691727506376,"141":0.16311150221034396,"142":-0.22434779399614924,"143":0.1874270174711554,"144":-0.15356923649421825,"145":-0.11328725155076075,"146":0.032675964696242815,"147":0.0772869866151847,"148":-0.2478318107796151,"149":-0.0534869496761511,"150":-0.2852745557063072,"151":0.21921803637519507,"152":-0.07505829052286239,"153":-0.2826108404388787,"154":0.053492483865972815,"155":0.10992825266846186,"156":-0.1602201504277872,"157":0.031219518360049093,"158":-0.03490067990886507,"159":0.22912263746819347,"160":-0.11149352707277502,"161":-0.06502631249044809,"162":-0.2187174167703408,"163":-0.11929765163653137,"164":0.011023434983488446,"165":0.057573074502889815,"166":0.014402604791825481,"167":0.04601857423296239,"168":-0.14105998397681047,"169":-0.14223095945667674,"170":-0.1702751703866497,"171":0.07026592255122228,"172":-0.027069045604553664,"173":-0.08608377991258001,"174":0.23263498434392837,"175":0.07060695217626572,"176":-0.17138876960104352,"177":-0.1109238307283339,"178":-0.12692231877561533,"179":-0.16641022177192727,"180":-0.21594293414557733,"181":-0.2592158030777423,"182":0.12307891268877617,"183":-0.030091415829453894,"184":-0.2171365151970098,"185":-0.14143351929711787,"186":0.07396155598921808,"187":0.07314184956098543,"188":-0.08430257169538598,"189":-0.15998360475222095,"190":-0.06363952866828172,"191":-0.0633163851155064,"192":-0.07149295257684696,"193":-0.042360722249381984,"194":-0.1385688035233922,"195":0.11496286071969239,"196":-0.006860176854345508,"197":-0.22763466399743118,"198":-0.13261446016454265,"199":-0.07074998639640444}},{"sx":5,"sy":5,"depth":8,"w":{"0":-0.4173336485673178,"1":-0.10131662956795887,"2":-0.08722013141263842,"3":-0.2752559746126804,"4":0.09898749839260594,"5":-0.27466081355293365,"6":0.24617565208684694,"7":-0.41486866494547736,"8":-0.08204387460540716,"9":-0.31485122597825305,"10":-0.09019964520580254,"11":-0.08147673811208146,"12":0.17618631911512558,"13":-0.10833760374251207,"14":0.08923734197266,"15":-0.31179913996450515,"16":0.0063787231377216294,"17":-0.2180608683110145,"18":-0.18369968593514574,"19":-0.22086594105011426,"20":-0.032224568587701403,"21":-0.05520316715696136,"22":0.1707157344121923,"23":-0.23365495232977743,"24":-0.04986892305238884,"25":-0.06375075589452617,"26":-0.24983639478716765,"27":-0.11238549006712072,"28":-0.164953517499684,"29":-0.016889966398425,"30":0.13046817495610605,"31":-0.024838067318898097,"32":-0.16080651303680907,"33":-0.13357367049688193,"34":-0.3978177978464439,"35":-0.23906627463481964,"36":-0.13925260800533037,"37":-0.16615117868781748,"38":0.26280604398082935,"39":-0.09361929584421992,"40":0.05671173333385455,"41":-0.09245806064755904,"42":0.07316212336067525,"43":-0.29597715410066056,"44":0.12026852465464663,"45":-0.08694973644728106,"46":0.05921705311816502,"47":-0.04706437692171282,"48":0.014651423937369557,"49":0.011511633535241655,"50":0.06514380397771415,"51":-0.10610757978141941,"52":0.07309391715835314,"53":-0.013686705949817891,"54":-0.16474027629742047,"55":0.03555163991848447,"56":0.19632199547862816,"57":-0.058874201200649616,"58":0.01366961469217889,"59":-0.12018183502996148,"60":-0.1045074071673438,"61":0.1184424708057005,"62":-0.17375579424842222,"63":0.02413230504729322,"64":0.18786198895168155,"65":0.041730453573035696,"66":-0.04160951232678235,"67":-0.1388642957435474,"68":-0.1955105170809331,"69":-0.06831379990519838,"70":-0.08478866452251606,"71":0.042061342540058576,"72":-0.05371222769317651,"73":-0.1489501622804339,"74":-0.020395715600470505,"75":-0.29310277731999107,"76":-0.15789050195274637,"77":0.05046592249107533,"78":0.11155850007421068,"79":-0.035397764121348846,"80":0.06859230426127272,"81":0.03397457562250826,"82":0.028258572617369797,"83":0.06555494472998431,"84":-0.09420413990922694,"85":-0.0912500766844998,"86":-0.1587589198327554,"87":0.007949081405499641,"88":0.08231832003243347,"89":0.03894366188737442,"90":0.13892083078724682,"91":-0.14190846582385358,"92":-0.019309440405482502,"93":0.20282965408308415,"94":-0.20206566196333872,"95":-0.05351380738296946,"96":0.1461228877926058,"97":0.03248104375970242,"98":0.12009400580063116,"99":-0.04900016897901293,"100":-0.061600555015491436,"101":0.11029722078714785,"102":-0.3902280298819265,"103":0.0788023786919129,"104":0.105554363818437,"105":0.015418535463685198,"106":0.23685909929031834,"107":-0.026465327007490765,"108":-0.1326746778303589,"109":0.0915203336294706,"110":-0.21230658268613903,"111":0.24359088377949217,"112":-0.06254854924636234,"113":-0.2361033461720343,"114":0.15983068134329897,"115":-0.0997086619805917,"116":0.0364587804101714,"117":-0.007071346391357382,"118":-0.1814010406581201,"119":0.09638044072433885,"120":-0.0549344749329565,"121":-0.04213973952945137,"122":0.09362328562007377,"123":0.018781779073923904,"124":0.10355744216671073,"125":0.07791860820274057,"126":-0.18522237424381754,"127":-0.3634268538966134,"128":0.1530035709365627,"129":0.03716284249113746,"130":-0.13818028855860845,"131":-0.18220835106879882,"132":0.023929961372793775,"133":0.2331809888718987,"134":-0.35530747749679126,"135":0.04826074370958979,"136":-0.016756795801253475,"137":0.05916626663009119,"138":0.0547796866061844,"139":-0.041814027858001195,"140":-0.08018873208087265,"141":0.0074041069547281894,"142":-0.22431158294667444,"143":0.11020035673333821,"144":0.08879517220012152,"145":-0.006666938844394017,"146":0.201337074653872,"147":-0.06920106997029933,"148":-0.03797131893859914,"149":0.035565073125813446,"150":-0.22558710685550065,"151":0.11410508670840513,"152":-0.015503312309629917,"153":-0.02325169581039874,"154":0.1476471188173997,"155":0.16515774675861838,"156":0.0013632428368643978,"157":0.04282546852965015,"158":-0.11306950794632001,"159":-0.015233690203230515,"160":0.1568916993571137,"161":0.08459754118801503,"162":-0.05889364384208345,"163":-0.12915816782809478,"164":-0.026072488720253553,"165":0.03890400008393259,"166":-0.25110264579910985,"167":-0.016489485646530043,"168":0.09093623918559428,"169":0.14869411492910398,"170":0.11735068852240749,"171":-0.045888163574954746,"172":0.027763204420693494,"173":0.15350692276911046,"174":-0.30316955584845895,"175":0.11861330224139187,"176":0.17771072861991227,"177":-0.03183336813657209,"178":0.07218524218600181,"179":-0.11826024081925962,"180":0.03776127718479948,"181":-0.0020616983795872564,"182":-0.1317857482305651,"183":0.004427433328188474,"184":-0.03264656252146376,"185":0.22624775055622023,"186":0.053432798549802596,"187":-0.029163827475130556,"188":0.1623577342364777,"189":-0.1037051752075034,"190":-0.12778780176205642,"191":-0.05284497860795749,"192":0.02877886250341075,"193":0.017682910134506808,"194":0.08090320964131821,"195":-0.028497095205224667,"196":-0.13903767729812908,"197":-0.02764020117319263,"198":-0.08524123555634919,"199":-0.10187811270522007}},{"sx":5,"sy":5,"depth":8,"w":{"0":0.14193175596961977,"1":0.007580882700006541,"2":0.021937126550495435,"3":-0.0450448214939456,"4":-0.011515281131047722,"5":0.03324803215547034,"6":-0.10638887139094046,"7":0.005311707760193092,"8":0.12426393528794061,"9":0.10828393465297548,"10":-0.10639393253123004,"11":-0.0997735422450056,"12":-0.006420115364906662,"13":0.1324715489023526,"14":-0.2937186598195471,"15":0.23614330472798956,"16":-0.03766946667973078,"17":0.050166858755969934,"18":-0.16560881181466092,"19":-0.16887830427635403,"20":0.04191506445912159,"21":0.08326533302940535,"22":-0.2481411826487688,"23":0.06624039199202524,"24":-0.01621149008911138,"25":-0.005345593591846252,"26":-0.1773073339860842,"27":-0.13707773235209955,"28":0.10456214489964641,"29":0.014724032281969012,"30":0.12648015188678766,"31":-0.15102142537000487,"32":0.00421257326571414,"33":-0.04755217882794331,"34":-0.047728962204851164,"35":0.03189031059538517,"36":0.07439386549686738,"37":0.07930994422484938,"38":0.2781024794418955,"39":-0.1693666938687939,"40":0.12319182459323011,"41":0.1557023815058426,"42":0.16208142000790554,"43":-0.19009735589540205,"44":-0.15774045688964977,"45":-0.023761560483719007,"46":-0.22302941447173535,"47":0.1001907140323029,"48":0.0568666415088945,"49":0.0014180938466390896,"50":-0.1532428309070188,"51":-0.17096612781981002,"52":-0.26216276771197694,"53":-0.139189125297855,"54":-0.25622382770765245,"55":-0.08340694755676656,"56":-0.22637793314632731,"57":-0.07339221460297825,"58":-0.13473413665252487,"59":0.008143396577564955,"60":0.0989848382651971,"61":-0.03695244349392571,"62":-0.07836717887694242,"63":-0.030998798019971668,"64":-0.01381705843703838,"65":0.012176266248374536,"66":0.03866175775652522,"67":-0.1384222690671574,"68":0.06567851786773961,"69":-0.05883626755060571,"70":0.10175224109556176,"71":-0.2714177351500202,"72":0.0849200864541972,"73":-0.02867764356965509,"74":0.20268947788739242,"75":0.13822301671059548,"76":0.29375862978590034,"77":-0.058602506735460906,"78":0.11676207046807202,"79":-0.14164996714483877,"80":-0.023731859577347334,"81":0.03388312720201952,"82":0.02463958291831807,"83":-0.01957877305770102,"84":-0.11157809557832372,"85":-0.15603464471597778,"86":-0.06081086305370929,"87":0.021010839339430126,"88":0.1262070014089931,"89":0.05990294854926666,"90":-0.053177599898404315,"91":-0.1678163815446711,"92":-0.1303384794576458,"93":-0.013736900197462062,"94":0.0011101518527468057,"95":0.012752372845696715,"96":-0.23059478901158545,"97":-0.01563198313980261,"98":-0.1784937167896382,"99":-0.012116277696594667,"100":0.011389589443546715,"101":-0.2176200702812175,"102":0.0036656053437092513,"103":0.022162637609129267,"104":-0.018272808711495638,"105":0.019025470427709173,"106":0.03642446953367733,"107":-0.007311483900318712,"108":0.21089965891315815,"109":-0.21493645414003598,"110":-0.04237131001466459,"111":-0.07382885370900555,"112":0.12309060302335123,"113":-0.018211713773192965,"114":0.2335992350365592,"115":-0.3398978107339386,"116":0.07505099627245934,"117":-0.0697488208984172,"118":-0.09117424185611761,"119":-0.008126893660331057,"120":-0.030707362266149656,"121":-0.06376264323086189,"122":-0.006905280828600374,"123":-0.1382079893753837,"124":0.13960239068546818,"125":-0.20121134355713083,"126":0.12175911215122419,"127":-0.1312144430002083,"128":-0.054931478629727554,"129":-0.07221269176832198,"130":-0.10876457626457087,"131":0.038674959749873596,"132":0.20345082782842222,"133":-0.039256921204196424,"134":0.026959201905637407,"135":-0.09435111952051865,"136":-0.009672508527462785,"137":-0.0865733510913911,"138":-0.062111425270841826,"139":0.05311363451214587,"140":0.0340901471900406,"141":-0.036797724477851665,"142":0.0335082889500518,"143":-0.07718213243723743,"144":-0.020577799960734368,"145":0.05519317551728331,"146":0.28467743387292826,"147":-0.09466449140026784,"148":0.09061808190845434,"149":-0.29030865838437925,"150":-0.07030869124898635,"151":-0.11696853143659157,"152":-0.17741847041510259,"153":0.0512936911487818,"154":0.1788165454915129,"155":-0.23922068969559515,"156":0.1326354164075225,"157":0.06455486935689761,"158":-0.20248491285443096,"159":0.09482893023977015,"160":-0.008452526147517984,"161":-0.11222132412748557,"162":-0.00938398151476512,"163":0.07303814888635954,"164":0.31890427704395613,"165":0.07628320569871032,"166":-0.09948340659728208,"167":0.06605176472086445,"168":0.03806730269776815,"169":0.05116258723150762,"170":0.07264985197698798,"171":0.12801167871981603,"172":0.05282186454630644,"173":-0.05626672076917776,"174":-0.01943976135865314,"175":0.15248498207147493,"176":0.018760320846249425,"177":0.059150164066579455,"178":0.01830917085817453,"179":-0.13251660811028101,"180":-0.017710660489390802,"181":0.06482274922013744,"182":0.1611525689831169,"183":0.05867814247888736,"184":-0.0404723269142214,"185":-0.07672274019782438,"186":-0.0853844403017206,"187":-0.003682005206177894,"188":0.010724875756711476,"189":-0.12335937549439695,"190":0.10173814445051003,"191":-0.2425809282829597,"192":-0.052885214376706936,"193":0.1581655679204972,"194":0.16306906036408358,"195":0.0849374869420428,"196":0.04211334419578254,"197":-0.19419426074644167,"198":-0.04842444303295745,"199":-0.04694423078324913}},{"sx":5,"sy":5,"depth":8,"w":{"0":-0.09509317266334748,"1":0.1361421062858517,"2":0.16891268179842886,"3":-0.03472928425785131,"4":0.20710876982194268,"5":-0.04558666554327087,"6":0.030783487799377264,"7":-0.3886145725018484,"8":0.038875779667136255,"9":-0.06931219156263897,"10":-0.03660606178685435,"11":0.17742561806259716,"12":0.04394775622012244,"13":-0.11606960465342789,"14":-0.15348410806867227,"15":-0.26423306943262004,"16":-0.054872740365340456,"17":0.14111166624318225,"18":-0.29080224857576403,"19":0.07431060558388342,"20":-0.22182490042952885,"21":-0.01953187595937906,"22":-0.16828074793471043,"23":0.0006877816535185099,"24":-0.02277735920059895,"25":0.0251408000439287,"26":-0.16317318617848892,"27":-0.17483359788885364,"28":0.0355385754830346,"29":0.04063247791018644,"30":-0.10519286419176728,"31":-0.20696540354763637,"32":-0.27173487027688076,"33":-0.007636021764852232,"34":-0.01756058914430546,"35":0.05746508748349564,"36":-0.0012055242198054914,"37":-0.13619875329074332,"38":-0.22869688935589552,"39":-0.20688097411384107,"40":-0.03471851714801988,"41":0.03657200012539853,"42":0.11881180489969177,"43":-0.1289754327967462,"44":0.13982117470946817,"45":-0.07139650498121508,"46":-0.22103877826684273,"47":-0.22994226707891682,"48":0.09612621646884438,"49":0.1293945672542958,"50":0.09710655752931877,"51":0.07128724219837905,"52":-0.06140032824291313,"53":0.1559928369594362,"54":-0.07136775101012008,"55":-0.14360586163597935,"56":-0.005704946550109229,"57":0.2032661827753375,"58":-0.3676326180858168,"59":-0.1572776507031666,"60":-0.17248899853653418,"61":-0.06203646368447299,"62":0.014776906237818405,"63":-0.06467939925859117,"64":-0.04347143934295462,"65":0.012693727945725992,"66":-0.07432466303424487,"67":0.0302025409453894,"68":0.007918002666454949,"69":-0.04740771135148267,"70":-0.03335979589235297,"71":-0.15804844630407688,"72":0.011516218174241947,"73":-0.12135970452403258,"74":-0.18581984595353604,"75":0.15601951917422388,"76":-0.17681145500208725,"77":-0.034030306926089625,"78":-0.08848826332301375,"79":-0.11099812303583456,"80":0.23195846628168734,"81":0.21693086945573054,"82":0.06042986304197793,"83":-0.05540541005104674,"84":0.045123371673069644,"85":0.002703853653897868,"86":-0.10584718580444043,"87":-0.20075049023910493,"88":0.18294864124111296,"89":0.03535283201098304,"90":-0.04199641981994668,"91":0.005301289180978174,"92":-0.1755052091655676,"93":0.14238342762968617,"94":-0.0585556204162195,"95":-0.12876186587196203,"96":0.022034605599338453,"97":0.07371066847740981,"98":-0.20035999326714515,"99":-0.12579663221555448,"100":-0.10408570331225159,"101":0.20741014749741282,"102":0.048995035599468245,"103":-0.1071503483883018,"104":-0.18341550186207972,"105":0.1332114281085441,"106":0.05390901096032795,"107":-0.004126476086017616,"108":0.1077540002588496,"109":-0.11394145857091324,"110":0.046965290355800986,"111":0.028459518151485206,"112":-0.04404906457916497,"113":0.01847112572074105,"114":-0.03866785856219173,"115":0.1213516537979413,"116":0.02814504527566139,"117":0.2587697116956684,"118":0.05360992821680336,"119":0.03350545542355812,"120":0.01369569975490291,"121":0.1210815888871072,"122":0.11594086034129404,"123":-0.13656472491420563,"124":0.24982161412946066,"125":0.09561177996170345,"126":-0.3067253015308875,"127":-0.049914590884742385,"128":0.13347687324631358,"129":0.062331773986469864,"130":-0.02857774858014577,"131":-0.0012696057623501026,"132":-0.28119353860630897,"133":0.15609250922695303,"134":-0.06249034870337064,"135":0.0029077113755186543,"136":-0.012350690341469215,"137":-0.008516396105367668,"138":0.0038098326249240404,"139":-0.09705873229406715,"140":0.1431237451522066,"141":0.10147009218017304,"142":0.12912899238786515,"143":-0.13432810924531846,"144":0.021010450854300044,"145":0.06688329438018227,"146":0.09240565858467617,"147":0.1994894334520328,"148":0.13987083893823904,"149":-0.0127769479682052,"150":0.07280553346874662,"151":-0.1831630761022021,"152":0.06728973000907751,"153":0.13850599431900745,"154":-0.040208810896174625,"155":0.33143234862042126,"156":0.0016672390033933638,"157":0.03300676685264578,"158":-0.05431709402661562,"159":-0.018677844019578685,"160":0.1885137309572782,"161":-0.03322955069299724,"162":0.1980342789443981,"163":-0.24970287915210623,"164":0.12627724744357396,"165":0.1002659073540462,"166":-0.2517645813684453,"167":0.022221084678858992,"168":0.09564772105030456,"169":-0.025624718344164844,"170":-0.06945242658350428,"171":-0.29561183263039087,"172":-0.11689782385847326,"173":0.16474716092689692,"174":-0.013314250005437313,"175":-0.06381203804039472,"176":0.044745960910592325,"177":-0.0023013611146615225,"178":-0.175710255064151,"179":-0.16907603413780978,"180":0.09335352422959989,"181":-0.0024092211438323926,"182":0.27955392713227994,"183":-0.07053869596896566,"184":-0.05446874857844145,"185":0.11256308812187174,"186":0.059300895710821165,"187":-0.0770293016193976,"188":0.18346059046279314,"189":-0.071614337538225,"190":-0.11686251789089461,"191":-0.08695233297169905,"192":0.07730161960892332,"193":0.1586780255098337,"194":-0.15382354829737957,"195":-0.06866380964530719,"196":-0.020616185751310807,"197":-0.06809171197132163,"198":0.11584197169047705,"199":-0.05180169180044492}},{"sx":5,"sy":5,"depth":8,"w":{"0":-0.20964170178160282,"1":-0.11202138626885444,"2":0.07921950259223805,"3":-0.16382039136548557,"4":0.07702233909158353,"5":-0.16935755141625886,"6":-0.07350026718959472,"7":-0.0010377213375959557,"8":0.14943015903083792,"9":0.025703205295167866,"10":0.18298529343149506,"11":-0.18736485000337516,"12":0.22705518977661196,"13":0.1347847430982804,"14":-0.11415507883629052,"15":-0.01128916966711292,"16":0.06099296487076856,"17":0.04472952766640848,"18":-0.011776323652331146,"19":-0.08982649940607929,"20":-0.009576130068283327,"21":0.04385573905566411,"22":-0.06939542979563809,"23":-0.16313589112689983,"24":-0.09907401230793367,"25":0.08137915612494837,"26":-0.16028860653035376,"27":0.14545915565714992,"28":-0.18076773965297022,"29":-0.047659495775682584,"30":-0.04095905757029721,"31":-0.40908179809544815,"32":-0.09326973334733091,"33":-0.19837614254943392,"34":-0.24850553765678568,"35":-0.16106918560547157,"36":0.06284120654997173,"37":0.016061419911548046,"38":-0.03572187215206941,"39":-0.2230872594105648,"40":-0.07948741725639814,"41":0.01576137623739635,"42":0.03291179227396051,"43":-0.3470354524485996,"44":0.13765217392356946,"45":-0.04704920987148634,"46":-0.2541626540227514,"47":0.01266101561407628,"48":0.05471043741580373,"49":-0.03978118153217835,"50":0.1987146046597147,"51":-0.11417778567010034,"52":0.14221735423260098,"53":0.16085574787958162,"54":-0.2632590600805834,"55":-0.06825073889884099,"56":0.10208884397901805,"57":0.08621040493581571,"58":-0.12298003918837157,"59":-0.1537121993625009,"60":0.05222821223693228,"61":0.014235087663554986,"62":-0.19743621832743857,"63":-0.21174675249643188,"64":-0.10852693130344439,"65":-0.1105163939764724,"66":-0.11216672955093407,"67":-0.15921903363557674,"68":0.10532347226254633,"69":-0.045248346594208406,"70":-0.14444857356784552,"71":-0.3129812896660121,"72":-0.09865667498285713,"73":0.005453295024376801,"74":0.08517665245599933,"75":-0.10741286995121914,"76":0.08210964718612103,"77":-0.08821808911012698,"78":-0.20879340564833493,"79":-0.20870709585066555,"80":-0.061188851368999375,"81":-0.03421248751365608,"82":0.06955762024179106,"83":0.06702935259219146,"84":-0.03056461929209323,"85":-0.10587521623933642,"86":-0.1494816790745466,"87":-0.10586414274393675,"88":0.029192996186151867,"89":0.011955805734815927,"90":0.0524852977880567,"91":0.03709252919582503,"92":0.015354968039262982,"93":-0.11435721576038059,"94":-0.08085565367936283,"95":-0.1319868611962809,"96":0.30120652312014895,"97":0.177973146698253,"98":0.005923266103876328,"99":-0.031046442050346252,"100":0.07161294002706327,"101":0.18468059237007556,"102":-0.03407828049349595,"103":-0.017575803673994323,"104":-0.016032606846355574,"105":-0.11398850565983189,"106":-0.01356314825854317,"107":-0.08892098519818407,"108":0.09933105171797699,"109":-0.15231402494008212,"110":0.04256606616439569,"111":-0.20761967259330114,"112":-0.10017659572918002,"113":-0.13936224621740304,"114":-0.045119887271137436,"115":-0.11707279850512169,"116":0.10727059613915352,"117":-0.2039446234301051,"118":0.049299917164939054,"119":-0.06284304906955698,"120":-0.001551567856372667,"121":0.02049665442874901,"122":0.08016687421303104,"123":-0.12195511033463065,"124":0.18727261055069683,"125":-0.18363958685756085,"126":-0.014211880129343534,"127":0.025169095055446712,"128":-0.0005327370196229848,"129":-0.024077624403398425,"130":0.06817084952976635,"131":-0.15189076508349955,"132":0.14671588535835267,"133":0.09083339042355079,"134":-0.0983165720400915,"135":0.06456710628075191,"136":0.03368762754447159,"137":-0.026416864901822112,"138":-0.047354792812430296,"139":-0.05725268481176143,"140":0.19535591013110098,"141":-0.022040079269738503,"142":0.11704353620876946,"143":0.04117469745395034,"144":0.036605810253123025,"145":-0.1070068687637958,"146":-0.0240008029193252,"147":-0.08677154535465216,"148":0.19874338896877344,"149":0.10682881197585213,"150":-0.0928686581152859,"151":-0.0850739525692636,"152":0.03912075169824778,"153":-0.14509322960174786,"154":-0.05952075094260349,"155":-0.3713395702428462,"156":0.08303194444836934,"157":0.05437746168220536,"158":-0.06747459760951972,"159":-0.10929720808855412,"160":-0.20535291270703085,"161":-0.29711868712122663,"162":0.1575730494157958,"163":-0.020001579870503865,"164":0.034578647317095174,"165":-0.10705373114207582,"166":-0.15847352551863442,"167":0.07355071344442474,"168":-0.12848642623017556,"169":-0.1515885990206629,"170":-0.04095008073914719,"171":0.04108442002856329,"172":0.2012895822151423,"173":0.14468862676463773,"174":-0.26736624431858763,"175":-0.03154520233458601,"176":0.05235528703652073,"177":0.01198723169486623,"178":0.09621272204658575,"179":0.02830164616139931,"180":0.22204494978505024,"181":0.06803242558708406,"182":-0.15822099987435104,"183":0.12066688671528464,"184":0.04072208698702664,"185":-0.1394321560076889,"186":0.015074081619437303,"187":-0.040501228699798546,"188":0.11436198810681639,"189":0.041589190489425054,"190":-0.1916605135460643,"191":0.0887293693277662,"192":0.0905600238093004,"193":-0.21221947526995527,"194":0.1655285131082159,"195":-0.015161784331825065,"196":-0.060193988444065934,"197":0.10451968077796724,"198":-0.3722194109658395,"199":0.21493067428683324}}],"biases":{"sx":1,"sy":1,"depth":16,"w":{"0":-0.07877118292038479,"1":-0.020367294996893034,"2":-0.08545089417131863,"3":0.04551731057398391,"4":-0.0336010554792081,"5":0.04178741430196607,"6":-0.002888967550297884,"7":0.05757580221549161,"8":-0.07965934196661387,"9":-0.012434221103558248,"10":-0.08276956330747592,"11":0.03208531682278197,"12":0.04408911829413393,"13":0.032586924384860716,"14":-0.0002842172185911905,"15":0.006444209389355663}}},{"out_depth":16,"out_sx":12,"out_sy":12,"layer_type":"relu"},{"sx":3,"sy":3,"stride":3,"in_depth":16,"out_depth":16,"out_sx":4,"out_sy":4,"layer_type":"pool","pad":0},{"out_depth":10,"out_sx":1,"out_sy":1,"layer_type":"fc","num_inputs":256,"l1_decay_mul":0,"l2_decay_mul":1,"filters":[{"sx":1,"sy":1,"depth":256,"w":{"0":-0.04272109472127859,"1":-0.07529737711537791,"2":-0.07895788827506384,"3":0.03305151541077654,"4":0.060667764576543166,"5":-0.12261796560923596,"6":0.04443298755856758,"7":-0.10950498800203527,"8":0.040444849723536555,"9":-0.04498917995981001,"10":-0.07455711665448657,"11":-0.07662719154400006,"12":0.03877141649649004,"13":-0.18525022169338737,"14":-0.16970791021782972,"15":0.010485346481456844,"16":0.04975611509871268,"17":-0.025468848615247897,"18":-0.04523834840758521,"19":-0.05037785390334354,"20":0.10377017400200336,"21":-0.1253709543111167,"22":-0.10567956389854676,"23":-0.19221665136227778,"24":-0.038714255186521246,"25":-0.07436777636950337,"26":-0.1203200579954779,"27":-0.040589731823033104,"28":-0.02480089010388779,"29":-0.03980535860511756,"30":-0.13251941555934188,"31":-0.011209093331942385,"32":-0.10329578762773826,"33":-0.08126556377273836,"34":-0.038828952661034706,"35":-0.0019513051258975955,"36":-0.0839809667895533,"37":-0.056721820709293415,"38":-0.12713488076725266,"39":-0.2565762731404434,"40":-0.02717914617383908,"41":-0.01071921382393937,"42":-0.21531714257492662,"43":-0.001422649718997462,"44":0.1452682614792682,"45":-0.022965811280823076,"46":-0.1316488511593996,"47":-0.08253163880155241,"48":-0.19458374353716018,"49":-0.21051600062505685,"50":-0.11619268692951522,"51":0.001081302547659719,"52":-0.08416140943844264,"53":0.1215304544010652,"54":-0.129248674348803,"55":-0.08861388592678345,"56":-0.07154320508624523,"57":-0.07956493048130334,"58":0.10829583089239903,"59":-0.020479309920836266,"60":-0.03397082876781829,"61":-0.11292514973000035,"62":0.041573714257616454,"63":0.017128105372229675,"64":-0.08280653026023135,"65":0.09576772695666261,"66":-0.2129360449701444,"67":-0.039750968273942366,"68":-0.25674348561945975,"69":-0.12148785255931353,"70":-0.00710034815174167,"71":-0.06922550089267437,"72":0.05696320523177353,"73":-0.24186771045388714,"74":-0.33176643614589596,"75":-0.12163491754520825,"76":-0.05621146086643402,"77":-0.008642370883271976,"78":0.04384406106133475,"79":-0.0189581790870756,"80":0.013081501676499024,"81":-0.23204890997115904,"82":-0.10932548347891269,"83":-0.018502918005198488,"84":-0.19161980563115194,"85":-0.2826267125133735,"86":0.016866453661885546,"87":-0.14544096357229933,"88":-0.21154599793368298,"89":-0.03477094316885812,"90":0.07245666645841131,"91":-0.11022386550930384,"92":0.09413688185076263,"93":-0.041432064306025515,"94":-0.0710447734296512,"95":-0.11441728761297164,"96":-0.1010193795998066,"97":-0.021711247371431912,"98":0.02156709127882484,"99":-0.09888196546127988,"100":-0.10581007248981673,"101":0.09768312570378913,"102":-0.2839843732302928,"103":-0.038463859641490745,"104":-0.009253540177851741,"105":-0.002436940152200476,"106":0.013488870344217576,"107":-0.05284516830153703,"108":0.2694600353451467,"109":-0.06502600809413585,"110":0.025084416547612443,"111":-0.04041828541404582,"112":-0.2503547206637535,"113":0.008868946372584766,"114":-0.3669283020791645,"115":-0.11817162593712904,"116":-0.2633652705691629,"117":0.03303402256562106,"118":-0.11943689694403156,"119":0.16927577427516005,"120":0.04924592431196525,"121":0.05560056225178696,"122":-0.2788085710898844,"123":-0.050950343130223105,"124":-0.15255285589653134,"125":-0.05066488300717545,"126":-0.06403338122514972,"127":0.20092928545150124,"128":-0.12926425732427485,"129":0.036284492846690074,"130":-0.007857686059133027,"131":-0.1441170297695197,"132":-0.15777858207590487,"133":-0.01853243103127133,"134":0.18377844040443495,"135":0.08343252339624564,"136":-0.20750594885090934,"137":0.08070295931284797,"138":-0.21208815111111923,"139":-0.14788178053664267,"140":-0.10003288633874707,"141":-0.14333041988908715,"142":0.011996516998855872,"143":-0.08893379829246038,"144":-0.1607995394658351,"145":0.012010146507570832,"146":-0.03196252881111412,"147":-0.17368752448238411,"148":-0.22755452689889402,"149":-0.05716107061008247,"150":-0.0016215998730001364,"151":-0.3040094577310353,"152":-0.5486188490262601,"153":-0.04184032028093401,"154":-0.03496265585686831,"155":-0.1371242453772525,"156":-0.02420505768569662,"157":-0.11216241095286603,"158":0.18448705816392416,"159":-0.0011768064584354876,"160":0.015422186797703739,"161":0.16387204917576773,"162":0.03498579793328887,"163":-0.060615667843098894,"164":-0.2049698941952808,"165":0.009971933441440642,"166":-0.0016256691867029625,"167":-0.18620787130674746,"168":0.1376379110683504,"169":-0.0005311721677365268,"170":-0.057007837241046605,"171":-0.14235833008520932,"172":-0.06531912076079541,"173":0.02309804490612821,"174":0.06293996162282425,"175":-0.050710662538467906,"176":-0.059079401262818236,"177":0.12134554132579742,"178":-0.06760632767556621,"179":-0.17958334041304175,"180":-0.04893536240612594,"181":-0.028444548111848128,"182":0.2261552419838813,"183":0.07198757334583485,"184":0.16041215621149452,"185":0.12729113213392199,"186":0.04998995100050031,"187":0.014599171757461029,"188":-0.10566347317464278,"189":-0.11776939767490421,"190":-0.02545898674989147,"191":0.17766844765497855,"192":-0.01093343216094861,"193":0.04007266725273277,"194":-0.11741721872213635,"195":-0.11556160294072448,"196":-0.2108708894586687,"197":0.10419487707188041,"198":-0.0508098441226572,"199":0.08503486813193077,"200":0.0810611719262748,"201":-0.005079076815011595,"202":0.10856910526611085,"203":-0.09724151358044703,"204":-0.02977478660082253,"205":-0.14362062125716077,"206":-0.21273593611678393,"207":0.046031150223346994,"208":-0.019917650088995157,"209":-0.18073446046779718,"210":-0.04219722818090953,"211":-0.011991878429483153,"212":-0.0026054805273183564,"213":-0.010926646783289116,"214":-0.15275650855073591,"215":0.12780387121281012,"216":-0.09762334340322446,"217":-0.08037901145115194,"218":-0.1225211509857816,"219":0.08416172414453763,"220":-0.054359703395101676,"221":-0.001141434328000631,"222":0.14061487092433217,"223":0.2301178885207628,"224":0.03340273834003225,"225":-0.2947688880209161,"226":0.12069354455920073,"227":0.08323954812573099,"228":0.08637923179730435,"229":0.02213836116421019,"230":-0.18217770193545402,"231":-0.0069773135251119354,"232":0.03995270500250972,"233":-0.15597718619378137,"234":-0.03826000132584204,"235":-0.01140813846222113,"236":-0.15135004602695995,"237":0.04532155028142974,"238":-0.04908892289420894,"239":-0.18661804565499993,"240":0.20291394391931297,"241":-0.08081388477357641,"242":0.13355373914978483,"243":-0.06576224160862505,"244":-0.12059095660303137,"245":0.029253169563959888,"246":0.0171363880823832,"247":-0.17620461753895894,"248":-0.025989542193960057,"249":0.07712633221206813,"250":0.12472401244856494,"251":-0.23367863767975022,"252":-0.0006082487486561922,"253":0.07348647477569463,"254":-0.0643017913222745,"255":-0.21274178901811555}},{"sx":1,"sy":1,"depth":256,"w":{"0":-0.09752709826946468,"1":-0.142510160130192,"2":-0.04400795225437567,"3":0.059616172872121356,"4":-0.050106170604095,"5":0.029500169332764684,"6":-0.04665591051577128,"7":0.07374594112217855,"8":-0.06909696801252001,"9":0.061451565731197734,"10":0.03789206610789577,"11":-0.00491345863372929,"12":-0.019354904926916605,"13":0.06061326777617128,"14":-0.02866703572420511,"15":0.01328547273715808,"16":0.01929099853566275,"17":0.024616996737168315,"18":-0.10794918786728448,"19":0.05734994205915216,"20":-0.051619203635690426,"21":0.08712872938614402,"22":-0.14865617476897597,"23":-0.05149709057795766,"24":-0.060507683015802664,"25":-0.02935512037296698,"26":-0.18993413040208987,"27":-0.20722632053497617,"28":-0.1503425339055499,"29":0.0670604779203386,"30":-0.12259324016446005,"31":-0.19848093556360089,"32":-0.002662284767705009,"33":0.04704167006339184,"34":-0.1124489966163376,"35":-0.06526642845074881,"36":-0.039295099997780664,"37":0.21069569734677102,"38":-0.004920361140725164,"39":-0.08032966231636864,"40":-0.20758758808709032,"41":-0.12840750762803343,"42":-0.033925222853852154,"43":-0.25732943826529997,"44":-0.08250105540829686,"45":0.06061510070990004,"46":0.16293823561444976,"47":-0.12414167491693169,"48":-0.007890978137988485,"49":0.12838125940950584,"50":-0.08828272706229642,"51":-0.2209965403453434,"52":-0.10555936230287809,"53":-0.014671767592516923,"54":0.11671146389605229,"55":0.0021090185134768277,"56":-0.14887611474876933,"57":0.09899203324343236,"58":-0.016279774807580492,"59":0.02087624463164972,"60":-0.028496645003341516,"61":-0.1655061722947351,"62":0.07790108816814716,"63":0.06317566115913448,"64":-0.062045107869933974,"65":-0.21304259486991278,"66":-0.20589619307944967,"67":-0.09235396372077452,"68":0.033953509195173856,"69":-0.12058301369600843,"70":-0.0515386054408097,"71":-0.0611196966958113,"72":0.01627710987723627,"73":-0.03107251924854638,"74":-0.16793401855369527,"75":-0.05210754923058844,"76":-0.03350143991555002,"77":-0.13361064455888194,"78":-0.15237460999769595,"79":-0.1351692917850706,"80":-0.22582934120083936,"81":-0.010871990660574314,"82":0.04663586125516339,"83":-0.03404322346772817,"84":0.022948134493563217,"85":-0.13537228001356977,"86":-0.03310969873125612,"87":-0.020894713109242617,"88":0.0823885668757376,"89":0.00436271402525021,"90":-0.40588794008669665,"91":-0.17333045189862992,"92":-0.16700113647694909,"93":0.16295028488365676,"94":-0.3332190926885582,"95":0.020916701769422046,"96":-0.08559637785527674,"97":-0.07028820770474734,"98":0.09197600200155212,"99":-0.1503069060982598,"100":-0.06539107908897486,"101":-0.09955399969170568,"102":0.002844088193125698,